{"learner":{"attributes":{"best_iteration":"99","best_ntree_limit":"100","scikit_learn":"{\"n_estimators\": 100, \"objective\": \"reg:squarederror\", \"max_depth\": null, \"learning_rate\": null, \"verbosity\": null, \"booster\": null, \"tree_method\": null, \"gamma\": null, \"min_child_weight\": null, \"max_delta_step\": null, \"subsample\": null, \"colsample_bytree\": null, \"colsample_bylevel\": null, \"colsample_bynode\": null, \"reg_alpha\": null, \"reg_lambda\": null, \"scale_pos_weight\": null, \"base_score\": null, \"missing\": NaN, \"num_parallel_tree\": null, \"random_state\": null, \"n_jobs\": null, \"monotone_constraints\": null, \"interaction_constraints\": null, \"importance_type\": null, \"gpu_id\": null, \"validate_parameters\": null, \"predictor\": null, \"enable_categorical\": false, \"_estimator_type\": \"regressor\"}"},"feature_names":["hour","minute","ambient_temperature","module_temperature","irradiation"],"feature_types":["int","int","float","float","float"],"gradient_booster":{"model":{"gbtree_model_param":{"num_trees":"100","size_leaf_vector":"0"},"tree_info":[0,0,0,0,0,0,0,0,0,0,0,0,0,0,0,0,0,0,0,0,0,0,0,0,0,0,0,0,0,0,0,0,0,0,0,0,0,0,0,0,0,0,0,0,0,0,0,0,0,0,0,0,0,0,0,0,0,0,0,0,0,0,0,0,0,0,0,0,0,0,0,0,0,0,0,0,0,0,0,0,0,0,0,0,0,0,0,0,0,0,0,0,0,0,0,0,0,0,0,0],"trees":[{"base_weights":[5.9309966E3,2.449978E3,9.051477E3,1.0721366E3,4.0794944E3,7.579624E3,1.1100962E4,4.8965854E2,1.7409471E3,3.3351829E3,4.816686E3,6.5878223E3,8.308129E3,1.0172671E4,1.2074083E4,2.4322249E2,7.922627E2,1.3795161E3,2.0125422E3,2.870183E3,3.697823E3,4.419347E3,5.235435E3,6.178592E3,6.9339507E3,7.728205E3,8.70545E3,9.92371E3,1.0690628E4,1.1621962E4,1.2630198E4,1.0436294E2,3.7771942E2,6.5370935E2,9.6728235E2,1.2484973E3,1.5446858E3,1.8480687E3,2.1492854E3,2.695018E3,3.0631904E3,3.450405E3,3.8371572E3,4.2690156E3,4.685075E3,4.9975435E3,5.4149805E3,5.862156E3,6.28256E3,6.6639834E3,7.122022E3,8.374842E3,8.962558E3,6.553408E1,1.6095303E2,3.0168222E2,4.2412857E2,5.7486646E2,7.146012E2,8.9987915E2,1.0399832E3,1.7979467E3,2.1817441E3,2.6543467E3,3.1363665E3,2.5351926E3,3.4835134E3,3.4842827E3,3.9576223E3,9.003375E3,5.727018E3],"categories":[],"categories_nodes":[],"categories_segments":[],"categories_sizes":[],"default_left":[true,true,true,true,true,true,true,true,true,true,true,true,true,true,true,true,true,true,true,true,true,true,true,true,true,false,true,false,false,false,false,true,true,true,true,false,false,false,true,false,true,true,true,false,false,false,false,false,false,false,false,false,true,false,false,false,false,false,false,false,false,false,false,false,false,false,false,false,false,false,false],"id":0,"left_children":[1,3,5,7,9,11,13,15,17,19,21,23,25,27,29,31,33,35,37,39,41,43,45,47,49,-1,51,-1,-1,-1,-1,53,55,57,59,-1,-1,-1,61,-1,63,65,67,-1,-1,-1,-1,-1,-1,-1,-1,-1,69,-1,-1,-1,-1,-1,-1,-1,-1,-1,-1,-1,-1,-1,-1,-1,-1,-1,-1],"loss_changes":[2.1393552E11,2.0903072E10,3.1245599E10,1.9652946E9,2.324693E9,4.3151524E9,3.7967626E9,2.0107866E8,2.2780826E8,3.478876E8,3.330949E8,3.206267E8,7.352648E8,1.8109235E8,3.8446694E8,2.7769416E7,2.8733952E7,1.9949952E7,2.614272E7,2.3388672E7,2.7819008E7,2.4139776E7,1.7229824E7,2.154496E6,2.2708224E7,0E0,9.997517E7,0E0,0E0,0E0,0E0,1.6022915E6,2.539832E6,2.848992E6,1.675968E6,0E0,0E0,0E0,4.345344E6,0E0,4.778752E6,4.470272E6,1.8220032E7,0E0,0E0,0E0,0E0,0E0,0E0,0E0,0E0,0E0,9.951642E7,0E0,0E0,0E0,0E0,0E0,0E0,0E0,0E0,0E0,0E0,0E0,0E0,0E0,0E0,0E0,0E0,0E0,0E0],"parents":[2147483647,0,0,1,1,2,2,3,3,4,4,5,5,6,6,7,7,8,8,9,9,10,10,11,11,12,12,13,13,14,14,15,15,16,16,17,17,18,18,19,19,20,20,21,21,22,22,23,23,24,24,26,26,31,31,32,32,33,33,34,34,38,38,40,40,41,41,42,42,52,52],"right_children":[2,4,6,8,10,12,14,16,18,20,22,24,26,28,30,32,34,36,38,40,42,44,46,48,50,-1,52,-1,-1,-1,-1,54,56,58,60,-1,-1,-1,62,-1,64,66,68,-1,-1,-1,-1,-1,-1,-1,-1,-1,70,-1,-1,-1,-1,-1,-1,-1,-1,-1,-1,-1,-1,-1,-1,-1,-1,-1,-1],"split_conditions":[4.0920576E-1,1.7498845E-1,7.0125484E-1,7.732578E-2,2.9626012E-1,5.280652E-1,8.453017E-1,3.7327208E-2,1.1501645E-1,2.3149295E-1,3.476208E-1,4.5610482E-1,5.9090143E-1,7.998628E-1,9.557899E-1,1.8647928E-2,5.4635935E-2,9.588757E-2,1.4126581E-1,2.0541146E-1,2.548614E-1,3.2527083E-1,3.735756E-1,4.2297143E-1,4.8538637E-1,2.3184617E3,6.355576E-1,2.977113E3,3.2071885E3,3.4865886E3,3.7890596E3,9.7570345E-3,2.5481358E-2,4.6334997E-2,6.964128E-2,3.745492E2,4.6340576E2,5.5442065E2,2.4307966E1,8.0850543E2,2.771474E1,2.2547628E1,7.5E0,1.2807047E3,1.4055226E3,1.4992631E3,1.6244943E3,1.7586469E3,1.8847681E3,1.9991951E3,2.1366067E3,2.5124526E3,7.0037067E-1,1.9660225E1,4.828591E1,9.050467E1,1.2723858E2,1.7245995E2,2.1438037E2,2.6996375E2,3.1199496E2,5.3938403E2,6.5452325E2,7.96304E2,9.4091E2,7.605578E2,1.0450541E3,1.0452849E3,1.1872867E3,2.7010127E3,1.7181055E3],"split_indices":[4,4,4,4,4,4,4,4,4,4,4,4,4,4,4,4,4,4,4,4,4,4,4,4,4,0,4,0,0,0,0,4,4,4,4,0,0,0,3,0,3,2,0,0,0,0,0,0,0,0,0,0,4,0,0,0,0,0,0,0,0,0,0,0,0,0,0,0,0,0,0],"split_type":[0,0,0,0,0,0,0,0,0,0,0,0,0,0,0,0,0,0,0,0,0,0,0,0,0,0,0,0,0,0,0,0,0,0,0,0,0,0,0,0,0,0,0,0,0,0,0,0,0,0,0,0,0,0,0,0,0,0,0,0,0,0,0,0,0,0,0,0,0,0,0],"sum_hessian":[1.9696E4,9.311E3,1.0385E4,5.046E3,4.265E3,6.047E3,4.338E3,2.698E3,2.348E3,2.125E3,2.14E3,2.565E3,3.482E3,2.226E3,2.112E3,1.488E3,1.21E3,1.01E3,1.338E3,9.35E2,1.19E3,1.104E3,1.036E3,1.184E3,1.381E3,1.424E3,2.058E3,1.517E3,7.09E2,1.177E3,9.35E2,7.33E2,7.55E2,6.78E2,5.32E2,5.68E2,4.42E2,6.14E2,7.24E2,4.98E2,4.37E2,4.38E2,7.52E2,7.16E2,3.88E2,4.58E2,5.78E2,3.07E2,8.77E2,5.82E2,7.99E2,9.15E2,1.143E3,4.36E2,2.97E2,2.89E2,4.66E2,3E2,3.78E2,2.83E2,2.49E2,6.6E1,6.58E2,7.2E1,3.65E2,1.8E1,4.2E2,1.99E2,5.53E2,1.127E3,1.6E1],"tree_param":{"num_deleted":"0","num_feature":"5","num_nodes":"71","size_leaf_vector":"0"}},{"base_weights":[4.1540693E3,1.7167281E3,6.338969E3,7.5455585E2,2.8625542E3,5.3738696E3,7.87966E3,3.5422736E2,1.2376228E3,2.2956675E3,3.3349478E3,4.772613E3,6.036751E3,7.3147866E3,8.598899E3,1.836458E2,5.856265E2,9.93199E2,1.429114E3,2.0156145E3,2.5469993E3,2.9773796E3,3.5908743E3,4.4210015E3,5.1188843E3,5.7613706E3,6.356365E3,7.0738413E3,7.600556E3,8.203733E3,8.795881E3,6.2476665E1,2.7012805E2,4.8359192E2,7.0109106E2,8.9607605E2,1.1009081E3,1.3796299E3,1.6967628E3,1.9012108E3,2.1882947E3,2.4654924E3,2.735108E3,2.6492144E3,3.0402249E3,3.405588E3,3.7757754E3,4.0400732E3,4.4901953E3,4.8830186E3,5.2769087E3,5.472429E3,5.871646E3,6.436089E3,5.9578335E3,7.6393887E3,5.400546E3,2.740913E1,8.847607E1,2.1500131E2,3.2683502E2,4.3637292E2,5.2116925E2,6.451812E2,7.3879285E2,8.5780804E2,9.6660425E2,1.0263829E3,1.1556049E3,1.2472646E3,1.4228156E3,1.7765402E3,1.9549792E3,1.8689509E3,2.261641E3,1.8146642E3,2.4796155E3,2.4793281E3,2.8779395E3,2.2945857E3,2.8166838E3,2.9263992E3,3.47442E3,4.2815293E3,4.677561E3,5.2979766E3,3.8378923E3,4.1099775E3,6.0685107E3],"categories":[],"categories_nodes":[],"categories_segments":[],"categories_sizes":[],"default_left":[true,true,true,true,true,true,true,true,true,true,true,true,true,true,true,true,true,true,true,true,true,true,true,true,true,true,true,false,true,false,false,true,true,true,true,true,true,true,false,true,true,true,true,true,false,true,false,false,true,false,true,false,false,false,true,false,false,false,false,false,false,false,false,false,false,false,false,false,false,false,false,false,false,false,false,false,false,false,false,false,false,false,false,false,false,false,false,false,false],"id":1,"left_children":[1,3,5,7,9,11,13,15,17,19,21,23,25,27,29,31,33,35,37,39,41,43,45,47,49,51,53,-1,55,-1,-1,57,59,61,63,65,67,69,-1,71,73,75,77,79,-1,81,-1,-1,83,-1,85,-1,-1,-1,87,-1,-1,-1,-1,-1,-1,-1,-1,-1,-1,-1,-1,-1,-1,-1,-1,-1,-1,-1,-1,-1,-1,-1,-1,-1,-1,-1,-1,-1,-1,-1,-1,-1,-1],"loss_changes":[1.0488247E11,1.0264152E10,1.5400796E10,9.786721E8,1.1304673E9,2.5175982E9,1.5614116E9,1.0923107E8,1.0595149E8,1.3106381E8,2.0124877E8,3.858514E8,2.305065E8,1.0087629E8,6.429901E7,1.670758E7,1.3504096E7,9.589632E6,1.466496E7,1.4014464E7,8.834048E6,1.1992064E7,3.3222656E7,2.5929728E7,3.699917E7,2.0156416E7,5.98016E6,0E0,4.537139E7,0E0,0E0,6.0479025E5,2.840104E6,8.85104E5,6.80608E5,6.20192E5,7.50144E5,4.450432E6,0E0,2.87488E5,4.205312E6,2.108928E6,3.75168E6,3.2768E6,0E0,1.2326912E7,0E0,0E0,3.494093E7,0E0,9.86112E6,0E0,0E0,0E0,2.53696E7,0E0,0E0,0E0,0E0,0E0,0E0,0E0,0E0,0E0,0E0,0E0,0E0,0E0,0E0,0E0,0E0,0E0,0E0,0E0,0E0,0E0,0E0,0E0,0E0,0E0,0E0,0E0,0E0,0E0,0E0,0E0,0E0,0E0,0E0],"parents":[2147483647,0,0,1,1,2,2,3,3,4,4,5,5,6,6,7,7,8,8,9,9,10,10,11,11,12,12,13,13,14,14,15,15,16,16,17,17,18,18,19,19,20,20,21,21,22,22,23,23,24,24,25,25,26,26,28,28,31,31,32,32,33,33,34,34,35,35,36,36,37,37,39,39,40,40,41,41,42,42,43,43,45,45,48,48,50,50,54,54],"right_children":[2,4,6,8,10,12,14,16,18,20,22,24,26,28,30,32,34,36,38,40,42,44,46,48,50,52,54,-1,56,-1,-1,58,60,62,64,66,68,70,-1,72,74,76,78,80,-1,82,-1,-1,84,-1,86,-1,-1,-1,88,-1,-1,-1,-1,-1,-1,-1,-1,-1,-1,-1,-1,-1,-1,-1,-1,-1,-1,-1,-1,-1,-1,-1,-1,-1,-1,-1,-1,-1,-1,-1,-1,-1,-1],"split_conditions":[4.0920576E-1,1.758276E-1,7.190753E-1,8.107875E-2,2.8500277E-1,5.637078E-1,8.7837815E-1,4.1074783E-2,1.1781894E-1,2.3149295E-1,3.309111E-1,4.825403E-1,6.364987E-1,8.011776E-1,9.249646E-1,1.5324505E-2,5.8082223E-2,9.819982E-2,1.622814E-1,2.085034E-1,2.6657057E-1,7.5E0,3.6627007E-1,8.5E0,5.176928E-1,5.8352613E-1,5.3464996E1,2.1221526E3,3.366501E1,2.46112E3,2.6387644E3,8.095833E-3,2.856287E-2,4.8810918E-2,6.964128E-2,8.907249E-2,1.0904579E-1,1.3208531E-1,5.0902887E2,7.5E0,2.771474E1,2.2547628E1,7.5E0,2.3642017E1,9.120675E2,7.5E0,1.1327327E3,1.212022E3,4.4215235E-1,1.4649056E3,5.4302174E1,1.6417289E3,1.7614939E3,1.9308268E3,5.3518326E1,2.2918167E3,1.6201638E3,8.222739E0,2.6542822E1,6.45004E1,9.8050514E1,1.3091188E2,1.5635078E2,1.9355437E2,2.2163786E2,2.5734244E2,2.899813E2,3.079149E2,3.4668146E2,3.741794E2,4.268447E2,5.329621E2,5.864938E2,5.606853E2,6.784924E2,5.443993E2,7.4388464E2,7.4379846E2,8.633819E2,6.8837573E2,8.450052E2,8.779198E2,1.042326E3,1.2844589E3,1.4032683E3,1.5893931E3,1.1513678E3,1.2329933E3,1.8205533E3],"split_indices":[4,4,4,4,4,4,4,4,4,4,4,4,4,4,4,4,4,4,4,4,4,0,4,0,4,4,3,0,2,0,0,4,4,4,4,4,4,4,0,0,3,2,0,2,0,0,0,0,4,0,3,0,0,0,3,0,0,0,0,0,0,0,0,0,0,0,0,0,0,0,0,0,0,0,0,0,0,0,0,0,0,0,0,0,0,0,0,0,0],"split_type":[0,0,0,0,0,0,0,0,0,0,0,0,0,0,0,0,0,0,0,0,0,0,0,0,0,0,0,0,0,0,0,0,0,0,0,0,0,0,0,0,0,0,0,0,0,0,0,0,0,0,0,0,0,0,0,0,0,0,0,0,0,0,0,0,0,0,0,0,0,0,0,0,0,0,0,0,0,0,0,0,0,0,0,0,0,0,0,0,0],"sum_hessian":[1.9696E4,9.311E3,1.0385E4,5.062E3,4.249E3,6.388E3,3.997E3,2.769E3,2.293E3,1.934E3,2.315E3,3.354E3,3.034E3,2.245E3,1.752E3,1.595E3,1.174E3,1.01E3,1.283E3,9.19E2,1.015E3,9.71E2,1.344E3,1.671E3,1.683E3,1.64E3,1.394E3,1.232E3,1.013E3,5.97E2,1.155E3,6.65E2,9.3E2,6.26E2,5.48E2,5.36E2,4.74E2,1.088E3,1.95E2,5.6E2,3.59E2,7.18E2,2.97E2,1.63E2,8.08E2,6.81E2,6.63E2,2.66E2,1.405E3,6.88E2,9.95E2,4.67E2,1.173E3,1.149E3,2.45E2,9.93E2,2E1,2.84E2,3.81E2,4.74E2,4.56E2,2.83E2,3.43E2,2.28E2,3.2E2,3.56E2,1.8E2,2.09E2,2.65E2,2.75E2,8.13E2,1.79E2,3.81E2,7.2E1,2.87E2,1.8E1,7E2,1.13E2,1.84E2,5.7E1,1.06E2,9.1E1,5.9E2,6.76E2,7.29E2,9.78E2,1.7E1,1.6E1,2.29E2],"tree_param":{"num_deleted":"0","num_feature":"5","num_nodes":"89","size_leaf_vector":"0"}},{"base_weights":[2.9099705E3,1.2321156E3,4.4669897E3,5.7659717E2,2.0965408E3,3.7136062E3,5.418204E3,2.6443546E2,9.4273346E2,1.8106332E3,2.5267468E3,3.222077E3,4.0187942E3,5.032795E3,6.0221387E3,1.23342354E2,4.228182E2,8.120836E2,1.1788193E3,1.6170225E3,2.0348617E3,2.3844695E3,2.705487E3,3.0347969E3,3.3494094E3,3.7431382E3,4.2132734E3,4.789272E3,5.271277E3,5.8172666E3,6.241425E3,5.487249E1,1.9557336E2,3.403451E2,5.196977E2,6.7332446E2,8.9502625E2,1.0502301E3,1.2634473E3,1.4810879E3,1.7445573E3,1.789958E3,2.0988079E3,2.0505945E3,2.4351248E3,2.5311685E3,2.797196E3,2.687244E3,3.098238E3,3.205597E3,3.4534124E3,4.3402783E3,3.7113699E3,4.099242E3,4.336363E3,5.1749595E3,4.7204966E3,5.289165E3,3.8575325E3,6.1600635E3,6.884932E3,3.885606E1,1.1039376E2,1.7743405E2,2.5202878E2,3.0539597E2,3.7737564E2,4.7643304E2,5.5624506E2,6.204942E2,7.0468866E2,8.28477E2,9.4167395E2,8.619691E2,1.1193969E3,8.579696E2,1.2744642E3,1.3791918E3,1.5553484E3,1.6008578E3,1.7847876E3,2.1652524E3,1.9845099E3,2.3236462E3,2.6880002E3,2.840121E3,2.3892664E3,3.0663362E3,3.647556E3,3.52122E3,3.1027573E3,3.557708E3,3.796885E3,4.577483E3,4.8981436E3,5.329553E3,4.6346235E3],"categories":[],"categories_nodes":[],"categories_segments":[],"categories_sizes":[],"default_left":[true,true,true,true,true,true,true,true,true,true,true,true,true,true,true,true,true,true,true,true,true,true,true,true,true,true,true,true,true,false,true,true,true,true,true,true,true,true,true,true,true,false,true,false,false,true,true,false,true,false,true,false,true,false,false,false,true,true,false,false,false,false,false,false,false,false,false,false,false,false,false,false,false,false,false,false,false,false,false,false,false,false,false,false,false,false,false,false,false,false,false,false,false,false,false,false,false],"id":2,"left_children":[1,3,5,7,9,11,13,15,17,19,21,23,25,27,29,31,33,35,37,39,41,43,45,47,49,51,53,55,57,-1,59,61,63,65,67,69,71,73,75,77,79,-1,81,-1,-1,83,85,-1,87,-1,89,-1,91,-1,-1,-1,93,95,-1,-1,-1,-1,-1,-1,-1,-1,-1,-1,-1,-1,-1,-1,-1,-1,-1,-1,-1,-1,-1,-1,-1,-1,-1,-1,-1,-1,-1,-1,-1,-1,-1,-1,-1,-1,-1,-1,-1],"loss_changes":[5.1451953E10,5.371734E9,7.3009725E9,6.1625114E8,4.983685E8,8.4270285E8,1.02014976E9,6.5043824E7,7.55991E7,1.0350592E8,3.5001344E7,4.2059776E7,1.7266278E8,1.3510246E8,4.244685E7,7.615458E6,1.0785344E7,1.782336E7,8.271232E6,2.0386816E7,1.4033408E7,1.049856E7,4.349952E6,1.1452416E7,8.28416E6,1.1644928E7,1.1042816E7,1.2099584E7,1.462272E7,0E0,1.200128E6,7.0088775E5,7.2333E5,8.47624E5,7.29568E5,5.6192E5,2.321088E6,3.67072E6,1.2608E6,2.758144E6,1.0624E6,0E0,2.49984E6,0E0,0E0,2.118272E6,1.251584E6,0E0,1.993728E6,0E0,6.621184E6,0E0,4.837376E6,0E0,0E0,0E0,7.55712E6,1.138688E7,0E0,0E0,0E0,0E0,0E0,0E0,0E0,0E0,0E0,0E0,0E0,0E0,0E0,0E0,0E0,0E0,0E0,0E0,0E0,0E0,0E0,0E0,0E0,0E0,0E0,0E0,0E0,0E0,0E0,0E0,0E0,0E0,0E0,0E0,0E0,0E0,0E0,0E0,0E0],"parents":[2147483647,0,0,1,1,2,2,3,3,4,4,5,5,6,6,7,7,8,8,9,9,10,10,11,11,12,12,13,13,14,14,15,15,16,16,17,17,18,18,19,19,20,20,21,21,22,22,23,23,24,24,25,25,26,26,27,27,28,28,30,30,31,31,32,32,33,33,34,34,35,35,36,36,37,37,38,38,39,39,40,40,42,42,45,45,46,46,48,48,50,50,52,52,56,56,57,57],"right_children":[2,4,6,8,10,12,14,16,18,20,22,24,26,28,30,32,34,36,38,40,42,44,46,48,50,52,54,56,58,-1,60,62,64,66,68,70,72,74,76,78,80,-1,82,-1,-1,84,86,-1,88,-1,90,-1,92,-1,-1,-1,94,96,-1,-1,-1,-1,-1,-1,-1,-1,-1,-1,-1,-1,-1,-1,-1,-1,-1,-1,-1,-1,-1,-1,-1,-1,-1,-1,-1,-1,-1,-1,-1,-1,-1,-1,-1,-1,-1,-1,-1],"split_conditions":[4.1792622E-1,1.9897996E-1,6.852912E-1,8.529654E-2,3.2395852E-1,5.176928E-1,8.7837815E-1,3.896779E-2,1.490005E-1,2.6761448E-1,3.7434196E-1,4.534139E-1,5.8352613E-1,7.665637E-1,9.609131E-1,2.0779988E-2,6.249748E-2,1.0904579E-1,1.622814E-1,2.3498021E-1,7.5E0,7.5E0,8.5E0,8.5E0,1.05E1,3.8592575E1,6.355576E-1,2.7643589E1,3.366501E1,1.74518E3,1.0589391E0,1.249989E-2,3.322553E-2,4.976596E-2,7.1504E-2,8.951091E-2,1.24388725E-1,2.5778923E1,2.3731827E1,2.1572492E-1,7.5E0,5.369874E2,1.55E1,6.1517834E2,7.305375E2,7.5E0,4.6590797E1,8.061732E2,4.8520607E1,9.6167914E2,1.55E1,1.3020835E3,1.05E1,1.2297727E3,1.3009089E3,1.5524879E3,7.292581E-1,6.145484E1,1.1572598E3,1.8480192E3,2.0654797E3,1.1656818E1,3.311813E1,5.3230217E1,7.5608635E1,9.161879E1,1.132127E2,1.4292992E2,1.6687352E2,1.8614827E2,2.114066E2,2.485431E2,2.825022E2,2.5859076E2,3.3581906E2,2.573909E2,3.823393E2,4.1375754E2,4.6660452E2,4.8025735E2,5.354363E2,6.4957574E2,5.9535297E2,6.970939E2,8.064001E2,8.520364E2,7.167799E2,9.199009E2,1.0942668E3,1.0563661E3,9.308272E2,1.0673125E3,1.1390656E3,1.3732449E3,1.4694431E3,1.5988661E3,1.3903871E3],"split_indices":[4,4,4,4,4,4,4,4,4,4,4,4,4,4,4,4,4,4,4,4,0,0,0,0,0,3,4,2,2,0,4,4,4,4,4,4,4,3,3,4,0,0,0,0,0,1,3,0,3,0,0,0,0,0,0,0,4,3,0,0,0,0,0,0,0,0,0,0,0,0,0,0,0,0,0,0,0,0,0,0,0,0,0,0,0,0,0,0,0,0,0,0,0,0,0,0,0],"split_type":[0,0,0,0,0,0,0,0,0,0,0,0,0,0,0,0,0,0,0,0,0,0,0,0,0,0,0,0,0,0,0,0,0,0,0,0,0,0,0,0,0,0,0,0,0,0,0,0,0,0,0,0,0,0,0,0,0,0,0,0,0,0,0,0,0,0,0,0,0,0,0,0,0,0,0,0,0,0,0,0,0,0,0,0,0,0,0,0,0,0,0,0,0,0,0,0,0],"sum_hessian":[1.9696E4,9.481E3,1.0215E4,5.393E3,4.088E3,5.703E3,4.512E3,2.912E3,2.481E3,2.459E3,1.629E3,2.189E3,3.514E3,2.76E3,1.752E3,1.541E3,1.371E3,1.6E3,8.81E2,1.324E3,1.135E3,9.15E2,7.14E2,8.96E2,1.293E3,1.462E3,2.052E3,1.376E3,1.384E3,9.2E2,8.32E2,7.92E2,7.49E2,7.43E2,6.28E2,6.02E2,9.98E2,3.55E2,5.26E2,6.47E2,6.77E2,2.41E2,8.94E2,1.26E2,7.89E2,2.56E2,4.58E2,1.45E2,7.51E2,5.56E2,7.37E2,6.7E1,1.395E3,1.083E3,9.69E2,1.97E2,1.179E3,1.364E3,2E1,7.48E2,8.4E1,6.16E2,1.76E2,5.7E2,1.79E2,3.87E2,3.56E2,2.94E2,3.34E2,2.32E2,3.7E2,4.19E2,5.79E2,9.9E1,2.56E2,1.6E1,5.1E2,2.81E2,3.66E2,1.57E2,5.2E2,5.54E2,3.4E2,1.17E2,1.39E2,4.09E2,4.9E1,7.16E2,3.5E1,6.1E2,1.27E2,5.14E2,8.81E2,6.68E2,5.11E2,1.278E3,8.6E1],"tree_param":{"num_deleted":"0","num_feature":"5","num_nodes":"97","size_leaf_vector":"0"}},{"base_weights":[2.0388553E3,8.7946606E2,3.1451284E3,3.7414178E2,1.4501525E3,2.6170115E3,3.7958892E3,1.709681E2,6.0873175E2,1.1776501E3,1.7313265E3,2.3344558E3,2.8705146E3,3.455201E3,4.152189E3,7.73577E1,2.711811E2,4.8458762E2,7.0625586E2,1.0047101E3,1.2962764E3,1.5473335E3,1.8502362E3,2.2068474E3,2.4731086E3,2.7179587E3,2.9900168E3,3.2645432E3,3.5497073E3,3.8667678E3,4.298841E3,2.8291159E1,1.171018E2,2.178872E2,3.340848E2,4.3736505E2,5.403339E2,6.498545E2,7.790438E2,9.483196E2,1.0900153E3,1.2026118E3,1.3525376E3,1.3682368E3,1.591879E3,1.7022538E3,1.9196584E3,2.2533533E3,1.9378507E3,2.2529678E3,2.5614536E3,2.4643652E3,2.7504421E3,2.773946E3,3.084567E3,3.2902344E3,2.0637224E3,4.0313674E3,3.5048945E3,3.8952612E3,3.2423193E3,4.274388E3,5.27632E3,-6.687915E0,4.0384964E1,9.1426506E1,1.399378E2,1.9051883E2,2.3953639E2,2.9607587E2,3.5315726E2,4.5169977E2,3.836932E2,5.630727E2,4.9160104E2,4.3882083E2,6.5831946E2,6.929185E2,8.1930005E2,8.47824E2,9.979197E2,8.92073E2,1.1227892E3,8.4393695E2,1.2138137E3,1.1384769E3,1.3925771E3,1.1060261E3,1.4320144E3,1.6895901E3,1.4721627E3,1.6073044E3,1.8424839E3,2.0449564E3,1.8241737E3,2.215351E3,2.6187925E3,1.6812971E3,2.0153832E3,2.2821272E3,1.6624683E3,2.5768208E3,1.6747052E3,2.953502E3,2.6729192E3,3.24747E3,2.8179546E3,3.3603452E3,3.0362612E3],"categories":[],"categories_nodes":[],"categories_segments":[],"categories_sizes":[],"default_left":[true,true,true,true,true,true,true,true,true,true,true,true,true,true,true,true,true,true,true,true,true,true,true,true,true,true,true,true,true,true,true,true,true,true,true,true,true,true,true,true,true,true,true,true,true,true,true,true,true,true,true,false,true,false,true,true,false,false,false,false,false,false,false,false,false,false,false,false,false,false,false,false,false,false,false,false,false,false,false,false,false,false,false,false,false,false,false,false,false,false,false,false,false,false,false,false,false,false,false,false,false,false,false,false,false,false,false,false,false],"id":3,"left_children":[1,3,5,7,9,11,13,15,17,19,21,23,25,27,29,31,33,35,37,39,41,43,45,47,49,51,53,55,57,59,61,63,65,67,69,71,73,75,77,79,81,83,85,87,89,91,93,95,97,99,101,-1,103,-1,105,107,-1,-1,-1,-1,-1,-1,-1,-1,-1,-1,-1,-1,-1,-1,-1,-1,-1,-1,-1,-1,-1,-1,-1,-1,-1,-1,-1,-1,-1,-1,-1,-1,-1,-1,-1,-1,-1,-1,-1,-1,-1,-1,-1,-1,-1,-1,-1,-1,-1,-1,-1,-1,-1],"loss_changes":[2.526063E10,2.7734006E9,3.453993E9,2.4311763E8,3.4405683E8,3.9205683E8,5.3347123E8,2.5645384E7,2.8327232E7,4.5821184E7,4.572928E7,4.1217024E7,4.529152E7,3.0089216E7,7.550976E7,2.758037E6,4.355712E6,2.514624E6,4.929216E6,3.483328E6,5.53472E6,4.826624E6,1.053952E7,1.2934656E7,1.8656256E7,3.913728E6,2.4804352E7,1.7242112E7,1.9001344E7,8.3968E5,1.1982848E7,2.6889422E5,4.45709E5,3.7978E5,3.33296E5,2.66E5,2.49552E5,1.054496E6,1.418944E6,2.01008E6,1.379264E6,1.060864E6,5.622784E6,1.459776E6,5.665792E6,2.8704E6,7.121152E6,1.0488832E7,8.0864E5,2.542464E6,7.798784E6,0E0,1.0083328E7,0E0,3.9796736E7,3.347968E6,0E0,0E0,0E0,0E0,0E0,0E0,0E0,0E0,0E0,0E0,0E0,0E0,0E0,0E0,0E0,0E0,0E0,0E0,0E0,0E0,0E0,0E0,0E0,0E0,0E0,0E0,0E0,0E0,0E0,0E0,0E0,0E0,0E0,0E0,0E0,0E0,0E0,0E0,0E0,0E0,0E0,0E0,0E0,0E0,0E0,0E0,0E0,0E0,0E0,0E0,0E0,0E0,0E0],"parents":[2147483647,0,0,1,1,2,2,3,3,4,4,5,5,6,6,7,7,8,8,9,9,10,10,11,11,12,12,13,13,14,14,15,15,16,16,17,17,18,18,19,19,20,20,21,21,22,22,23,23,24,24,25,25,26,26,27,27,28,28,29,29,30,30,31,31,32,32,33,33,34,34,35,35,36,36,37,37,38,38,39,39,40,40,41,41,42,42,43,43,44,44,45,45,46,46,47,47,48,48,49,49,50,50,52,52,54,54,55,55],"right_children":[2,4,6,8,10,12,14,16,18,20,22,24,26,28,30,32,34,36,38,40,42,44,46,48,50,52,54,56,58,60,62,64,66,68,70,72,74,76,78,80,82,84,86,88,90,92,94,96,98,100,102,-1,104,-1,106,108,-1,-1,-1,-1,-1,-1,-1,-1,-1,-1,-1,-1,-1,-1,-1,-1,-1,-1,-1,-1,-1,-1,-1,-1,-1,-1,-1,-1,-1,-1,-1,-1,-1,-1,-1,-1,-1,-1,-1,-1,-1,-1,-1,-1,-1,-1,-1,-1,-1,-1,-1,-1,-1],"split_conditions":[4.2297143E-1,1.8079436E-1,6.852912E-1,7.942848E-2,3.0390534E-1,5.437715E-1,8.339366E-1,3.4723237E-2,1.1781894E-1,2.3498021E-1,3.476208E-1,4.834842E-1,5.9983885E-1,7.2882605E-1,8.9785874E-1,1.3278719E-2,5.2466676E-2,9.819982E-2,1.4924094E-1,2.1572492E-1,2.6071727E-1,7.5E0,8.5E0,3.2365444E1,9.5E0,8.5E0,9.5E0,5.8949085E1,2.743081E1,6.145484E1,1.1368262E0,6.4801476E-3,2.4627946E-2,4.5395914E-2,6.519311E-2,2.922073E1,2.25E1,2.3847187E1,2.5943733E1,7.5E0,2.771474E1,2.2557178E1,3.0718042E1,2.3642017E1,2.8907658E1,3.931296E-1,2.7860977E1,4.7398914E1,4.4622573E-1,2.7692787E1,5.2964317E1,7.393096E2,2.708577E1,8.3218384E2,5.0176476E1,5.3464996E1,6.1911676E2,1.2094103E3,1.0514684E3,1.1685784E3,9.7269586E2,1.2823165E3,1.582896E3,-2.0063746E0,1.211549E1,2.7427954E1,4.1981342E1,5.715565E1,7.186092E1,8.882276E1,1.0594718E2,1.3550993E2,1.1510796E2,1.6892181E2,1.4748032E2,1.3164626E2,1.9749585E2,2.0787556E2,2.4579002E2,2.543472E2,2.9937592E2,2.6762192E2,3.3683676E2,2.5318109E2,3.6414413E2,3.415431E2,4.1777316E2,3.3180786E2,4.2960434E2,5.0687704E2,4.4164883E2,4.8219135E2,5.527452E2,6.1348694E2,5.4725214E2,6.6460535E2,7.8563776E2,5.0438916E2,6.04615E2,6.846382E2,4.987405E2,7.7304626E2,5.024116E2,8.860506E2,8.018758E2,9.74241E2,8.453864E2,1.0081036E3,9.108784E2],"split_indices":[4,4,4,4,4,4,4,4,4,4,4,4,4,4,4,4,4,4,4,4,4,0,0,2,0,0,0,3,2,3,4,4,4,4,4,2,1,3,3,0,3,2,3,2,2,4,2,3,4,2,3,0,2,0,3,3,0,0,0,0,0,0,0,0,0,0,0,0,0,0,0,0,0,0,0,0,0,0,0,0,0,0,0,0,0,0,0,0,0,0,0,0,0,0,0,0,0,0,0,0,0,0,0,0,0,0,0,0,0],"split_type":[0,0,0,0,0,0,0,0,0,0,0,0,0,0,0,0,0,0,0,0,0,0,0,0,0,0,0,0,0,0,0,0,0,0,0,0,0,0,0,0,0,0,0,0,0,0,0,0,0,0,0,0,0,0,0,0,0,0,0,0,0,0,0,0,0,0,0,0,0,0,0,0,0,0,0,0,0,0,0,0,0,0,0,0,0,0,0,0,0,0,0,0,0,0,0,0,0,0,0,0,0,0,0,0,0,0,0,0,0],"sum_hessian":[1.9696E4,9.618E3,1.0078E4,5.102E3,4.516E3,5.566E3,4.512E3,2.735E3,2.367E3,2.296E3,2.22E3,2.637E3,2.929E3,2.312E3,2.2E3,1.415E3,1.32E3,1.044E3,1.323E3,9.38E2,1.358E3,8.77E2,1.343E3,1.382E3,1.255E3,1.297E3,1.632E3,7.78E2,1.534E3,7.56E2,1.444E3,6.34E2,7.81E2,7.17E2,6.03E2,5.7E2,4.74E2,7.51E2,5.72E2,5.72E2,3.66E2,5.18E2,8.4E2,1.81E2,6.96E2,4.37E2,9.06E2,1.172E3,2.1E2,3.67E2,8.88E2,1.56E2,1.141E3,5.06E2,1.126E3,7.6E2,1.8E1,1.23E2,1.411E3,7.18E2,3.8E1,1.414E3,3E1,1.63E2,4.71E2,3.7E2,4.11E2,3.21E2,3.96E2,2.07E2,3.96E2,4.44E2,1.26E2,3.16E2,1.58E2,3.1E1,7.2E2,1.88E2,3.84E2,1.95E2,3.77E2,5.6E1,3.1E2,1.8E1,5E2,1.37E2,7.03E2,3.9E1,1.42E2,3.76E2,3.2E2,2.68E2,1.69E2,3.83E2,5.23E2,1.068E3,1.04E2,5.4E1,1.56E2,3.47E2,2E1,8.71E2,1.7E1,3.05E2,8.36E2,6.92E2,4.34E2,5.86E2,1.74E2],"tree_param":{"num_deleted":"0","num_feature":"5","num_nodes":"109","size_leaf_vector":"0"}},{"base_weights":[1.4286251E3,5.717098E2,2.165185E3,2.5802853E2,9.615072E2,1.7811942E3,2.6430662E3,1.10895164E2,4.1161258E2,8.0455865E2,1.1418171E3,1.5553245E3,1.9557035E3,2.4057168E3,2.9048997E3,5.420654E1,1.7976132E2,3.1855792E2,4.7956378E2,7.0101404E2,8.9118774E2,1.074384E3,1.2262152E3,1.4670563E3,1.6409584E3,1.8392218E3,2.0468105E3,2.2914275E3,2.4877585E3,2.7078374E3,3.0111714E3,2.4687813E1,8.836743E1,1.5159885E2,2.2146935E2,2.8424762E2,3.5567337E2,4.1452747E2,5.074401E2,6.678327E2,7.7937604E2,8.032822E2,9.1866925E2,9.887459E2,1.1237848E3,1.0885288E3,1.2695654E3,1.2895319E3,1.5117861E3,1.6265356E3,2.1276062E3,1.848914E3,9.5844073E2,2.0979324E3,1.8962157E3,2.3165083E3,1.4490444E3,2.8592888E3,2.444645E3,2.8717764E3,2.610915E3,2.9449827E3,3.2550083E3,4.591834E0,3.9025276E1,7.759382E1,1.0684025E2,1.335407E2,1.666204E2,2.0086737E2,2.3380533E2,2.5559158E2,2.9922977E2,3.439239E2,3.8728864E2,2.794585E2,4.1837354E2,4.9019757E2,5.8259546E2,6.2880206E2,7.267179E2,6.291463E2,8.126398E2,7.2850934E2,9.0697815E2,8.772492E2,9.910329E2,1.0271418E3,8.875425E2,1.2799543E3,1.0373146E3,5.9751276E2,1.1295328E3,1.2916179E3,1.0171368E3,1.5973129E3,1.235279E3,1.4708113E3,1.659277E3,1.6507643E3,1.2096271E3,1.668383E3,2.402341E3,2.450504E3,1.8331299E3,1.9019934E3,2.204752E3,1.1158021E3,1.9225171E3,2.0785125E3,2.3645237E3,2.4541404E3,1.7539819E3,1.9901738E3,2.9237566E3,2.1201323E3,2.6470518E3,3.1966313E3,3.9887483E3],"categories":[],"categories_nodes":[],"categories_segments":[],"categories_sizes":[],"default_left":[true,true,true,true,true,true,true,true,true,true,true,true,true,true,true,true,true,true,true,true,true,true,true,true,true,true,true,true,true,true,true,true,true,true,true,true,true,true,true,true,true,true,true,true,true,true,true,true,true,true,true,true,false,true,true,true,false,false,true,true,true,false,true,false,false,false,false,false,false,false,false,false,false,false,false,false,false,false,false,false,false,false,false,false,false,false,false,false,false,false,false,false,false,false,false,false,false,false,false,false,false,false,false,false,false,false,false,false,false,false,false,false,false,false,false,false,false,false,false],"id":4,"left_children":[1,3,5,7,9,11,13,15,17,19,21,23,25,27,29,31,33,35,37,39,41,43,45,47,49,51,53,55,57,59,61,63,65,67,69,71,73,75,77,79,81,83,85,87,89,91,93,95,97,99,101,103,-1,105,107,109,-1,-1,111,113,115,-1,117,-1,-1,-1,-1,-1,-1,-1,-1,-1,-1,-1,-1,-1,-1,-1,-1,-1,-1,-1,-1,-1,-1,-1,-1,-1,-1,-1,-1,-1,-1,-1,-1,-1,-1,-1,-1,-1,-1,-1,-1,-1,-1,-1,-1,-1,-1,-1,-1,-1,-1,-1,-1,-1,-1,-1,-1],"loss_changes":[1.2430905E10,1.113162E9,1.9389481E9,1.1400314E8,1.1397683E8,2.2856704E8,2.861527E8,1.0058486E7,1.5459136E7,1.8875904E7,9.421824E6,1.698816E7,3.1372288E7,1.7554432E7,3.871539E7,1.425693E6,1.333664E6,1.22964E6,2.373152E6,2.066656E6,2.112704E6,3.36064E6,3.578112E6,8.158976E6,5.621504E6,1.0717184E7,1.0256896E7,1.8806272E7,1.5947776E7,5.117952E6,1.3734912E7,2.1908419E5,1.222665E5,1.6709E5,7.1722E4,1.58792E5,5.1792E4,1.08016E5,1.0012E6,1.165664E6,9.37936E5,1.580048E6,1.804224E6,6.23296E5,7.625472E6,3.472608E6,2.170944E6,2.418432E6,3.669248E6,1.0740736E7,2.81568E5,9.238016E6,0E0,2.450176E7,7.686784E6,6.706688E6,0E0,0E0,4.155392E6,7.241472E6,3.43296E6,0E0,5.6576E4,0E0,0E0,0E0,0E0,0E0,0E0,0E0,0E0,0E0,0E0,0E0,0E0,0E0,0E0,0E0,0E0,0E0,0E0,0E0,0E0,0E0,0E0,0E0,0E0,0E0,0E0,0E0,0E0,0E0,0E0,0E0,0E0,0E0,0E0,0E0,0E0,0E0,0E0,0E0,0E0,0E0,0E0,0E0,0E0,0E0,0E0,0E0,0E0,0E0,0E0,0E0,0E0,0E0,0E0,0E0,0E0],"parents":[2147483647,0,0,1,1,2,2,3,3,4,4,5,5,6,6,7,7,8,8,9,9,10,10,11,11,12,12,13,13,14,14,15,15,16,16,17,17,18,18,19,19,20,20,21,21,22,22,23,23,24,24,25,25,26,26,27,27,28,28,29,29,30,30,31,31,32,32,33,33,34,34,35,35,36,36,37,37,38,38,39,39,40,40,41,41,42,42,43,43,44,44,45,45,46,46,47,47,48,48,49,49,50,50,51,51,53,53,54,54,55,55,58,58,59,59,60,60,62,62],"right_children":[2,4,6,8,10,12,14,16,18,20,22,24,26,28,30,32,34,36,38,40,42,44,46,48,50,52,54,56,58,60,62,64,66,68,70,72,74,76,78,80,82,84,86,88,90,92,94,96,98,100,102,104,-1,106,108,110,-1,-1,112,114,116,-1,118,-1,-1,-1,-1,-1,-1,-1,-1,-1,-1,-1,-1,-1,-1,-1,-1,-1,-1,-1,-1,-1,-1,-1,-1,-1,-1,-1,-1,-1,-1,-1,-1,-1,-1,-1,-1,-1,-1,-1,-1,-1,-1,-1,-1,-1,-1,-1,-1,-1,-1,-1,-1,-1,-1,-1,-1],"split_conditions":[3.9589885E-1,1.7498845E-1,6.745088E-1,7.1504E-2,2.9805905E-1,5.176928E-1,8.3352953E-1,3.4723237E-2,1.120639E-1,2.3498021E-1,3.476208E-1,4.534139E-1,5.8352613E-1,7.3292035E-1,8.9785874E-1,1.9323058E-2,5.207782E-2,8.907249E-2,1.3208531E-1,2.2019024E-1,7.5E0,8.5E0,7.5E0,8.5E0,3.4179726E1,5.827384E-1,4.996382E1,5.898284E1,2.762835E1,8.607841E-1,1.0092006E0,8.703215E-3,2.924275E-2,4.5395914E-2,2.2906021E1,7.5E0,1.0870239E-1,2.234475E1,1.622814E-1,2.25E1,2.771474E1,3.75E1,2.745028E-1,2.4871082E1,2.8907658E1,2.4120724E1,4.722973E1,4.0330908E-1,4.4215235E-1,3.2950172E1,2.25E1,3.596884E1,2.8753223E2,9.5E0,5.0025566E1,9.5E0,4.3471335E2,8.577867E2,8.328591E-1,2.910612E1,8.6202484E-1,8.834948E2,1.3E1,1.3775502E0,1.1707583E1,2.3278147E1,3.2052074E1,4.006221E1,4.9986126E1,6.0260212E1,7.01416E1,7.6677475E1,8.9768936E1,1.0317717E2,1.1618659E2,8.3837555E1,1.2551206E2,1.4705928E2,1.7477864E2,1.8864062E2,2.1801538E2,1.887439E2,2.4379195E2,2.1855281E2,2.7209344E2,2.6317477E2,2.9730988E2,3.0814258E2,2.6626276E2,3.8398633E2,3.111944E2,1.7925383E2,3.3885986E2,3.8748538E2,3.0514105E2,4.7919388E2,3.7058374E2,4.412434E2,4.977831E2,4.952293E2,3.6288812E2,5.0051492E2,7.2070233E2,7.351512E2,5.4993896E2,5.70598E2,6.614256E2,3.3474066E2,5.767551E2,6.235538E2,7.093571E2,7.362421E2,5.261946E2,5.970522E2,8.77127E2,6.3603973E2,7.9411554E2,9.5898944E2,1.1966245E3],"split_indices":[4,4,4,4,4,4,4,4,4,4,4,4,4,4,4,4,4,4,4,4,0,0,1,0,2,4,3,3,2,4,4,4,4,4,3,0,4,3,4,1,3,1,4,2,2,2,3,4,4,2,1,3,0,0,3,0,0,0,4,2,4,0,0,0,0,0,0,0,0,0,0,0,0,0,0,0,0,0,0,0,0,0,0,0,0,0,0,0,0,0,0,0,0,0,0,0,0,0,0,0,0,0,0,0,0,0,0,0,0,0,0,0,0,0,0,0,0,0,0],"split_type":[0,0,0,0,0,0,0,0,0,0,0,0,0,0,0,0,0,0,0,0,0,0,0,0,0,0,0,0,0,0,0,0,0,0,0,0,0,0,0,0,0,0,0,0,0,0,0,0,0,0,0,0,0,0,0,0,0,0,0,0,0,0,0,0,0,0,0,0,0,0,0,0,0,0,0,0,0,0,0,0,0,0,0,0,0,0,0,0,0,0,0,0,0,0,0,0,0,0,0,0,0,0,0,0,0,0,0,0,0,0,0,0,0,0,0,0,0,0,0],"sum_hessian":[1.9696E4,9.105E3,1.0591E4,5.046E3,4.059E3,5.875E3,4.716E3,2.578E3,2.468E3,2.173E3,1.886E3,2.565E3,3.31E3,2.479E3,2.237E3,1.415E3,1.163E3,1.044E3,1.424E3,9.94E2,1.179E3,1.056E3,8.3E2,1.272E3,1.293E3,1.462E3,1.848E3,1.048E3,1.431E3,7.93E2,1.444E3,7.6E2,6.55E2,6.97E2,4.66E2,5.47E2,4.97E2,4.32E2,9.92E2,7.05E2,2.89E2,2.88E2,8.91E2,3.94E2,6.62E2,2.05E2,6.25E2,2.62E2,1.01E3,1.26E3,3.3E1,1.445E3,1.7E1,1.37E3,4.78E2,1.016E3,3.2E1,1.42E2,1.289E3,2.84E2,5.09E2,1.146E3,2.98E2,3.17E2,4.43E2,4.17E2,2.38E2,3.21E2,3.76E2,1.81E2,2.85E2,1.94E2,3.53E2,3.71E2,1.26E2,1.4E1,4.18E2,8.13E2,1.79E2,4.31E2,2.74E2,5.6E1,2.33E2,1.72E2,1.16E2,5.75E2,3.16E2,2.79E2,1.15E2,2.31E2,4.31E2,1.7E1,1.88E2,5.71E2,5.4E1,3.5E1,2.27E2,7.99E2,2.11E2,1.188E3,7.2E1,1.5E1,1.8E1,3.3E1,1.412E3,4.9E2,8.8E2,1.7E1,4.61E2,1.78E2,8.38E2,1.269E3,2E1,1.8E1,2.66E2,3.9E1,4.7E2,2.81E2,1.7E1],"tree_param":{"num_deleted":"0","num_feature":"5","num_nodes":"119","size_leaf_vector":"0"}},{"base_weights":[1.0012049E3,4.1121484E2,1.5264377E3,1.808589E2,6.8583563E2,1.2333633E3,1.8270238E3,8.502621E1,2.9731003E2,5.6587445E2,8.164227E2,1.073892E3,1.3301477E3,1.6559487E3,2.0298893E3,3.7992897E1,1.3411414E2,2.488435E2,3.54157E2,5.0761603E2,6.489449E2,7.65979E2,8.9344086E2,9.3073364E2,1.10042E3,1.1275382E3,1.3548102E3,1.5436295E3,1.7147076E3,1.9475883E3,2.163741E3,1.948849E1,6.510304E1,1.0693478E2,1.6449135E2,2.2504137E2,2.8259668E2,2.2675226E2,3.644734E2,5.0093484E2,9.327581E2,6.4052423E2,8.296324E2,6.9212244E2,8.0481177E2,6.787946E2,9.08477E2,9.654627E2,7.38217E2,1.128415E3,9.0003564E2,1.0339744E3,1.1989801E3,1.4589291E3,1.3238778E3,1.6137726E3,1.3055752E3,1.8792567E3,1.6502068E3,1.9553802E3,1.2129978E3,1.5425549E3,2.1905537E3,-8.403947E0,2.5294804E1,5.7924755E1,7.4922295E1,8.070804E1,1.12759476E2,1.4055165E2,1.743306E2,2.3709557E2,1.8247406E2,3.0058136E2,2.6173495E2,3.7988263E2,3.1351215E2,5.155465E2,4.06555E2,6.6065656E2,5.692198E2,5.7186816E2,7.138563E2,9.5331006E2,7.424792E2,4.282174E2,7.7704065E2,9.218699E2,6.290971E2,8.8775385E2,1.0733661E3,1.0557587E3,1.1835627E3,1.0388904E3,7.981187E2,1.0707058E3,6.973016E2,1.2315577E3,8.4583264E2,1.3847001E3,1.530953E3,1.2564618E3,1.3868398E3,1.5092439E3,1.8595405E3,1.0160405E3,1.5355469E3,1.7760675E3,1.9552905E3,1.5992296E3,1.9641777E3,1.9700189E3,1.5490698E3,1.7837759E3,1.2393657E3,2.5527876E3,2.1391296E3],"categories":[],"categories_nodes":[],"categories_segments":[],"categories_sizes":[],"default_left":[true,true,true,true,true,true,true,true,true,true,true,true,true,true,true,true,true,true,true,true,true,true,true,true,true,true,true,true,true,true,true,true,true,true,true,true,true,false,true,true,false,true,false,true,true,true,true,true,false,true,true,true,true,true,true,true,true,true,true,true,false,true,true,false,false,false,false,false,false,false,false,false,false,false,false,false,false,false,false,false,false,false,false,false,false,false,false,false,false,false,false,false,false,false,false,false,false,false,false,false,false,false,false,false,false,false,false,false,false,false,false,false,false,false,false,false,false],"id":5,"left_children":[1,3,5,7,9,11,13,15,17,19,21,23,25,27,29,31,33,35,37,39,41,43,45,47,49,51,53,55,57,59,61,63,65,67,69,71,73,-1,75,77,-1,79,-1,81,83,85,87,89,-1,91,93,95,97,99,101,103,105,107,109,111,-1,113,115,-1,-1,-1,-1,-1,-1,-1,-1,-1,-1,-1,-1,-1,-1,-1,-1,-1,-1,-1,-1,-1,-1,-1,-1,-1,-1,-1,-1,-1,-1,-1,-1,-1,-1,-1,-1,-1,-1,-1,-1,-1,-1,-1,-1,-1,-1,-1,-1,-1,-1,-1,-1,-1,-1],"loss_changes":[6.103124E9,5.868072E8,9.156854E8,5.629837E7,6.5833856E7,8.004966E7,1.7509376E8,6.390192E6,6.18816E6,1.0361152E7,7.179136E6,6.567424E6,1.4866944E7,1.5799296E7,2.1651456E7,7.09078E5,1.101142E6,9.26992E5,1.292176E6,3.233856E6,8.48608E5,2.970688E6,1.94912E6,1.420096E6,8.414336E6,1.18E6,7.473152E6,1.4089984E7,1.6279552E7,6.00832E6,1.136128E7,1.3673831E5,3.611875E4,1.00583E5,1.25778E5,3.30284E5,1.11172E5,0E0,6.3948E5,1.562496E6,0E0,8.74272E5,0E0,7.18224E5,6.697216E6,1.045878E6,2.188928E6,1.28592E6,0E0,4.644608E6,2.156832E6,1.28152E6,1.247776E6,1.403136E6,7.858944E6,1.6332416E7,1.3487968E7,5.05088E5,1.7985792E7,5.554688E6,0E0,7.14672E5,1.0298112E7,0E0,0E0,0E0,0E0,0E0,0E0,0E0,0E0,0E0,0E0,0E0,0E0,0E0,0E0,0E0,0E0,0E0,0E0,0E0,0E0,0E0,0E0,0E0,0E0,0E0,0E0,0E0,0E0,0E0,0E0,0E0,0E0,0E0,0E0,0E0,0E0,0E0,0E0,0E0,0E0,0E0,0E0,0E0,0E0,0E0,0E0,0E0,0E0,0E0,0E0,0E0,0E0,0E0,0E0],"parents":[2147483647,0,0,1,1,2,2,3,3,4,4,5,5,6,6,7,7,8,8,9,9,10,10,11,11,12,12,13,13,14,14,15,15,16,16,17,17,18,18,19,19,20,20,21,21,22,22,23,23,24,24,25,25,26,26,27,27,28,28,29,29,30,30,31,31,32,32,33,33,34,34,35,35,36,36,38,38,39,39,41,41,43,43,44,44,45,45,46,46,47,47,49,49,50,50,51,51,52,52,53,53,54,54,55,55,56,56,57,57,58,58,59,59,61,61,62,62],"right_children":[2,4,6,8,10,12,14,16,18,20,22,24,26,28,30,32,34,36,38,40,42,44,46,48,50,52,54,56,58,60,62,64,66,68,70,72,74,-1,76,78,-1,80,-1,82,84,86,88,90,-1,92,94,96,98,100,102,104,106,108,110,112,-1,114,116,-1,-1,-1,-1,-1,-1,-1,-1,-1,-1,-1,-1,-1,-1,-1,-1,-1,-1,-1,-1,-1,-1,-1,-1,-1,-1,-1,-1,-1,-1,-1,-1,-1,-1,-1,-1,-1,-1,-1,-1,-1,-1,-1,-1,-1,-1,-1,-1,-1,-1,-1,-1,-1,-1],"split_conditions":[4.0711203E-1,1.7498845E-1,6.478976E-1,8.107875E-2,2.9942256E-1,4.9892056E-1,8.219504E-1,3.4723237E-2,1.2896615E-1,2.4857976E-1,3.5884213E-1,8.5E0,8.5E0,1.05E1,9.5875835E-1,2.1647476E-2,5.2466676E-2,1.0870239E-1,2.3992794E1,3.306684E1,4.3062267E1,8.5E0,2.40615E1,2.6222874E1,3.2663208E1,3.75E1,2.7024986E1,5.1615005E1,4.9699574E1,9.584743E-1,1.05E1,6.046458E-3,2.924275E-2,2.2340157E1,6.489437E-2,2.7954496E1,1.65E1,6.802568E1,1.65E1,1.65E1,2.7982745E2,3.0138092E1,2.4888972E2,2.3642017E1,2.8111065E1,1.5E1,4.048452E-1,2.25E1,2.214651E2,4.4215235E-1,4.598884E1,2.6658352E1,2.7345335E1,9.5E0,5.750663E-1,4.943669E1,2.8671137E1,2.25E1,8.011776E-1,3.360059E1,3.6389935E2,2.8774082E1,2.9324953E1,-2.5211842E0,7.5884414E0,1.7377428E1,2.2476688E1,2.4212412E1,3.3827843E1,4.2165497E1,5.2299183E1,7.112867E1,5.474222E1,9.017441E1,7.852049E1,1.1396479E2,9.405365E1,1.5466396E2,1.219665E2,1.9819698E2,1.7076595E2,1.7156046E2,2.141569E2,2.8599304E2,2.2274376E2,1.2846523E2,2.331122E2,2.7656097E2,1.8872914E2,2.6632617E2,3.2200983E2,3.167276E2,3.5506885E2,3.116671E2,2.3943562E2,3.2121176E2,2.0919048E2,3.6946735E2,2.537498E2,4.1541003E2,4.5928592E2,3.7693854E2,4.1605197E2,4.527732E2,5.578622E2,3.0481216E2,4.606641E2,5.3282025E2,5.8658716E2,4.797689E2,5.8925336E2,5.910057E2,4.6472098E2,5.351328E2,3.7180972E2,7.658363E2,6.417389E2],"split_indices":[4,4,4,4,4,4,4,4,4,4,4,0,0,0,4,4,4,4,3,2,3,0,2,2,2,1,2,3,3,4,0,4,4,2,4,2,0,0,0,0,0,2,0,2,2,1,4,1,0,4,3,2,2,0,4,3,2,1,4,2,0,2,2,0,0,0,0,0,0,0,0,0,0,0,0,0,0,0,0,0,0,0,0,0,0,0,0,0,0,0,0,0,0,0,0,0,0,0,0,0,0,0,0,0,0,0,0,0,0,0,0,0,0,0,0,0,0],"split_type":[0,0,0,0,0,0,0,0,0,0,0,0,0,0,0,0,0,0,0,0,0,0,0,0,0,0,0,0,0,0,0,0,0,0,0,0,0,0,0,0,0,0,0,0,0,0,0,0,0,0,0,0,0,0,0,0,0,0,0,0,0,0,0,0,0,0,0,0,0,0,0,0,0,0,0,0,0,0,0,0,0,0,0,0,0,0,0,0,0,0,0,0,0,0,0,0,0,0,0,0,0,0,0,0,0,0,0,0,0,0,0,0,0,0,0,0,0],"sum_hessian":[1.9696E4,9.277E3,1.0419E4,5.046E3,4.231E3,5.278E3,5.141E3,2.769E3,2.277E3,2.208E3,2.023E3,1.998E3,3.28E3,2.794E3,2.347E3,1.415E3,1.354E3,1.232E3,1.045E3,1.302E3,9.06E2,1.229E3,7.94E2,3.18E2,1.68E3,3.61E2,2.919E3,9.69E2,1.825E3,1.463E3,8.84E2,8.42E2,5.73E2,7.17E2,6.37E2,7.27E2,5.05E2,8E1,9.65E2,1.284E3,1.8E1,8.7E2,3.6E1,4.3E2,7.99E2,5.5E1,7.39E2,2.66E2,5.2E1,1.47E3,2.1E2,1.63E2,1.98E2,6.58E2,2.261E3,7.44E2,2.25E2,5.06E2,1.319E3,1.446E3,1.7E1,3.9E1,8.45E2,1.45E2,6.97E2,3.35E2,2.38E2,1.33E2,5.84E2,1.9E2,4.47E2,5.63E2,1.64E2,2.64E2,2.41E2,7.36E2,2.29E2,1.108E3,1.76E2,6.72E2,1.98E2,7E1,3.6E2,2.32E2,5.67E2,1.7E1,3.8E1,7.03E2,3.6E1,1.6E2,1.06E2,6.43E2,8.27E2,8.5E1,1.25E2,1.45E2,1.8E1,1.79E2,1.9E1,3.34E2,3.24E2,1.102E3,1.159E3,5.27E2,2.17E2,1.02E2,1.23E2,2.25E2,2.81E2,1.14E3,1.79E2,1.392E3,5.4E1,1.9E1,2E1,9.9E1,7.46E2],"tree_param":{"num_deleted":"0","num_feature":"5","num_nodes":"117","size_leaf_vector":"0"}},{"base_weights":[7.016667E2,2.8039355E2,1.0637712E3,1.3785486E2,4.8738876E2,8.7385785E2,1.3001222E3,6.3039776E1,2.2560606E2,4.246799E2,5.794158E2,7.83919E2,9.774981E2,1.2131389E3,1.4824524E3,3.4182304E1,1.0887353E2,1.9440602E2,2.8380893E2,3.7624286E2,4.6118042E2,4.4462042E2,5.998995E2,7.271585E2,8.42078E2,9.339309E2,1.0667722E3,1.1406687E3,1.2831588E3,1.4377522E3,1.6068666E3,1.46602125E1,5.4421448E1,9.241282E1,1.24513664E2,1.6561723E2,2.1206065E2,2.4504076E2,3.24209E2,2.968235E2,4.0919806E2,4.6685654E2,1.9696878E1,3.1480286E2,4.7374976E2,5.794324E2,6.8238995E2,7.603628E2,6.533119E2,7.556484E2,8.925552E2,9.9320166E2,8.0443427E2,1.2540592E3,1.01357416E3,1.1912753E3,9.862242E2,1.2909882E3,4.6942056E2,1.5915763E3,1.3984733E3,1.6670872E3,1.3337482E3,5.0950837E0,2.7977766E1,5.3098003E1,1.1470286E2,9.530853E1,5.073638E1,1.2695588E2,8.672465E1,2.716178E2,1.6235957E2,1.3936514E2,2.185749E2,2.7764474E2,1.6971468E2,3.384558E2,2.0674506E2,1.9938446E2,3.658893E2,4.372422E2,2.6482306E2,4.219024E2,4.929758E2,5.146921E2,1.0944158E2,6.0042883E2,4.3945065E2,5.906E2,3.5395676E2,7.457429E2,6.292565E2,6.4832574E2,8.039552E2,3.3439127E2,7.0313055E2,1.1113877E3,7.2926434E2,1.0573082E3,8.178986E2,9.6272064E2,1.630263E3,2.3204796E2,8.254094E2,1.1520099E3,1.6642728E3,1.0262858E3,4.0919022E2,1.1696653E3,1.8685159E3,-1.5476189E2,1.034673E3,1.7783757E3,1.2780175E3,1.3798422E3,1.7390951E3,8.024772E2,1.4110211E3,1.5304224E3,1.8387236E3,1.00201434E3,1.6391133E3],"categories":[],"categories_nodes":[],"categories_segments":[],"categories_sizes":[],"default_left":[true,true,true,true,true,true,true,true,true,true,true,true,true,true,true,true,true,true,true,true,true,true,true,true,true,true,true,true,true,true,true,true,true,true,true,true,true,true,true,true,true,true,false,true,true,true,true,true,true,true,true,true,true,true,true,true,true,true,false,true,true,true,true,false,false,false,false,false,false,false,false,false,false,false,false,false,false,false,false,false,false,false,false,false,false,false,false,false,false,false,false,false,false,false,false,false,false,false,false,false,false,false,false,false,false,false,false,false,false,false,false,false,false,false,false,false,false,false,false,false,false,false,false],"id":6,"left_children":[1,3,5,7,9,11,13,15,17,19,21,23,25,27,29,31,33,35,37,39,41,43,45,47,49,51,53,55,57,59,61,63,65,67,69,71,73,75,77,79,81,83,-1,85,87,89,91,93,95,97,99,101,103,105,107,109,111,113,-1,115,117,119,121,-1,-1,-1,-1,-1,-1,-1,-1,-1,-1,-1,-1,-1,-1,-1,-1,-1,-1,-1,-1,-1,-1,-1,-1,-1,-1,-1,-1,-1,-1,-1,-1,-1,-1,-1,-1,-1,-1,-1,-1,-1,-1,-1,-1,-1,-1,-1,-1,-1,-1,-1,-1,-1,-1,-1,-1,-1,-1,-1,-1],"loss_changes":[3.0043791E9,2.6860378E8,4.7429837E8,3.5398E7,2.1181248E7,5.400525E7,7.30112E7,3.849146E6,4.45196E6,3.737248E6,3.880448E6,9.789568E6,9.6064E6,1.4769152E7,6.1376E6,7.060549E5,2.78122E5,7.87748E5,1.273784E6,2.380672E6,3.14072E6,6.14724E5,1.801152E6,3.431424E6,6.08768E6,1.3323648E7,7.5664E6,1.118208E7,9.708544E6,4.583424E6,4.24032E6,1.16031766E5,6.395575E4,6.17815E4,4.1963E4,1.69994E5,4.43096E5,1.04577E6,6.32888E5,1.838286E6,2.609096E6,1.249152E6,0E0,1.585651E6,4.44372E5,2.432352E6,3.82376E5,4.846208E6,7.772544E6,4.614496E6,1.110304E7,2.2858752E7,6.807904E6,6.120256E6,4.927168E6,1.5171712E7,2.2050784E7,7.860992E6,0E0,4.534464E6,5.643264E6,4.645184E6,6.056384E6,0E0,0E0,0E0,0E0,0E0,0E0,0E0,0E0,0E0,0E0,0E0,0E0,0E0,0E0,0E0,0E0,0E0,0E0,0E0,0E0,0E0,0E0,0E0,0E0,0E0,0E0,0E0,0E0,0E0,0E0,0E0,0E0,0E0,0E0,0E0,0E0,0E0,0E0,0E0,0E0,0E0,0E0,0E0,0E0,0E0,0E0,0E0,0E0,0E0,0E0,0E0,0E0,0E0,0E0,0E0,0E0,0E0,0E0,0E0,0E0],"parents":[2147483647,0,0,1,1,2,2,3,3,4,4,5,5,6,6,7,7,8,8,9,9,10,10,11,11,12,12,13,13,14,14,15,15,16,16,17,17,18,18,19,19,20,20,21,21,22,22,23,23,24,24,25,25,26,26,27,27,28,28,29,29,30,30,31,31,32,32,33,33,34,34,35,35,36,36,37,37,38,38,39,39,40,40,41,41,43,43,44,44,45,45,46,46,47,47,48,48,49,49,50,50,51,51,52,52,53,53,54,54,55,55,56,56,57,57,59,59,60,60,61,61,62,62],"right_children":[2,4,6,8,10,12,14,16,18,20,22,24,26,28,30,32,34,36,38,40,42,44,46,48,50,52,54,56,58,60,62,64,66,68,70,72,74,76,78,80,82,84,-1,86,88,90,92,94,96,98,100,102,104,106,108,110,112,114,-1,116,118,120,122,-1,-1,-1,-1,-1,-1,-1,-1,-1,-1,-1,-1,-1,-1,-1,-1,-1,-1,-1,-1,-1,-1,-1,-1,-1,-1,-1,-1,-1,-1,-1,-1,-1,-1,-1,-1,-1,-1,-1,-1,-1,-1,-1,-1,-1,-1,-1,-1,-1,-1,-1,-1,-1,-1,-1,-1,-1,-1,-1,-1],"split_conditions":[3.9589885E-1,1.9897996E-1,6.745088E-1,8.529654E-2,3.1516504E-1,5.437715E-1,8.927884E-1,4.6334997E-2,1.4924094E-1,2.4857976E-1,7.5E0,4.6546644E-1,1.25E1,7.665637E-1,9.939943E-1,2.277589E-2,6.519311E-2,1.0973095E-1,1.1E1,7.5E0,3.1474328E-1,2.3725847E1,3.75E1,2.8947762E1,1.05E1,2.8373646E1,4.4846214E1,5.3464996E1,8.927469E-1,5.570973E1,3.1739082E1,1.0895026E-2,3.161072E1,3.126277E1,3.3661205E1,8.584139E-2,2.3989906E1,2.422562E1,3.2235992E1,2.25E1,1.65E1,8.5E0,5.909064E0,3.75E1,3.1567019E1,4.6530113E1,2.6964962E1,8.5E0,2.9506905E1,4.6990514E-1,1.25E1,2.8247353E1,2.8387623E1,6.34025E-1,6.631968E-1,5.328121E1,2.8287449E1,7.7046824E-1,1.4082617E2,2.8835278E1,5.590217E1,1.15E1,3.2165005E1,1.5285252E0,8.393331E0,1.5929401E1,3.441086E1,2.8592562E1,1.5220915E1,3.8086765E1,2.6017395E1,8.1485344E1,4.8707874E1,4.1809544E1,6.557247E1,8.329343E1,5.0914406E1,1.0153675E2,6.2023518E1,5.9815342E1,1.097668E2,1.3117267E2,7.944692E1,1.26570724E2,1.4789275E2,1.5440762E2,3.2832478E1,1.8012866E2,1.318352E2,1.7718E2,1.06187035E2,2.2372289E2,1.8877695E2,1.9449773E2,2.4118657E2,1.0031738E2,2.1093918E2,3.3341632E2,2.1877931E2,3.1719247E2,2.453696E2,2.888162E2,4.890789E2,6.961439E1,2.4762283E2,3.4560297E2,4.9928186E2,3.0788574E2,1.2275707E2,3.508996E2,5.605548E2,-4.6428566E1,3.1040192E2,5.3351276E2,3.8340524E2,4.1395267E2,5.217286E2,2.4074316E2,4.2330637E2,4.5912674E2,5.516171E2,3.006043E2,4.91734E2],"split_indices":[4,4,4,4,4,4,4,4,4,4,0,4,0,4,4,4,4,4,0,0,4,2,1,2,0,2,3,3,4,3,2,4,3,2,3,4,3,2,2,1,0,0,0,1,3,3,2,0,2,4,0,2,2,4,4,3,2,4,0,2,3,0,2,0,0,0,0,0,0,0,0,0,0,0,0,0,0,0,0,0,0,0,0,0,0,0,0,0,0,0,0,0,0,0,0,0,0,0,0,0,0,0,0,0,0,0,0,0,0,0,0,0,0,0,0,0,0,0,0,0,0,0,0],"split_type":[0,0,0,0,0,0,0,0,0,0,0,0,0,0,0,0,0,0,0,0,0,0,0,0,0,0,0,0,0,0,0,0,0,0,0,0,0,0,0,0,0,0,0,0,0,0,0,0,0,0,0,0,0,0,0,0,0,0,0,0,0,0,0,0,0,0,0,0,0,0,0,0,0,0,0,0,0,0,0,0,0,0,0,0,0,0,0,0,0,0,0,0,0,0,0,0,0,0,0,0,0,0,0,0,0,0,0,0,0,0,0,0,0,0,0,0,0,0,0,0,0,0,0],"sum_hessian":[1.9696E4,9.105E3,1.0591E4,5.393E3,3.712E3,5.875E3,4.716E3,2.912E3,2.481E3,2.211E3,1.501E3,3.15E3,2.725E3,3.198E3,1.518E3,1.788E3,1.124E3,1.618E3,8.63E2,9.55E2,1.256E3,2.01E2,1.3E3,1.601E3,1.549E3,1.839E3,8.86E2,1.58E3,1.618E3,1.126E3,3.92E2,9.11E2,8.77E2,5.51E2,5.73E2,6.19E2,9.99E2,4.44E2,4.19E2,2.83E2,6.72E2,1.24E3,1.6E1,3.9E1,1.62E2,1.048E3,2.52E2,1.098E3,5.03E2,5.77E2,9.72E2,1.257E3,5.82E2,1.91E2,6.95E2,1.185E3,3.95E2,1.602E3,1.6E1,2.21E2,9.05E2,3.17E2,7.5E1,5.31E2,3.8E2,8.6E2,1.7E1,5.14E2,3.7E1,5.36E2,3.7E1,1.6E1,6.03E2,8.4E1,9.15E2,3.08E2,1.36E2,3.72E2,4.7E1,1.19E2,1.64E2,5.61E2,1.11E2,4.62E2,7.78E2,1.9E1,2E1,3.1E1,1.31E2,9.97E2,5.1E1,1.09E2,1.43E2,3.12E2,7.86E2,6.9E1,4.34E2,3.7E1,5.4E2,2.99E2,6.73E2,1.202E3,5.5E1,2.1E1,5.61E2,1.56E2,3.5E1,6.8E2,1.5E1,1.151E3,3.4E1,1.6E1,3.79E2,3.8E1,1.564E3,9.5E1,1.26E2,2E1,8.85E2,1.82E2,1.35E2,3.8E1,3.7E1],"tree_param":{"num_deleted":"0","num_feature":"5","num_nodes":"123","size_leaf_vector":"0"}},{"base_weights":[4.9179758E2,2.116998E2,7.5998785E2,1.04897835E2,3.6977267E2,6.491226E2,9.452386E2,4.804431E1,1.7251079E2,3.1072183E2,4.2346878E2,5.898764E2,7.463413E2,8.826189E2,1.045166E3,2.3082973E1,7.920244E1,1.4736253E2,2.2184512E2,3.146735E2,8.312704E1,3.6700095E2,4.5477963E2,5.36144E2,6.2909985E2,6.372878E2,7.836263E2,8.9554364E2,6.068153E2,1.0372596E3,1.6143413E3,4.7996693E0,3.312554E1,6.4063644E1,9.141549E1,1.0276764E2,1.5431221E2,2.3452667E2,1.6867786E2,3.0414517E2,4.2067877E2,1.4135297E1,1.4722894E2,4.008049E2,3.1911862E2,5.438415E2,4.1313358E2,5.472851E2,3.232668E2,6.423046E2,4.5065787E2,5.6547504E2,7.209729E2,9.6968115E2,7.3871136E2,8.8503986E2,1.1916268E3,7.372056E2,3.5065387E2,1.1680073E3,1.00972955E3,-1.5739022E1,8.110812E0,3.4836838E1,-6.796336E1,6.892072E1,3.8230267E1,9.499768E1,1.3782283E1,1.134559E2,7.319435E1,1.8095828E2,1.4052705E2,1.9642857E2,2.800603E2,2.9165085E2,1.5261911E2,3.2119586E2,2.4868356E2,3.286963E2,4.6362656E2,3.500214E2,5.236459E2,2.9109412E2,4.5094855E2,5.0660193E2,9.702301E2,5.4341736E2,3.7395935E2,5.3607135E2,1.3150156E3,-6.898413E1,4.0830606E2,5.828233E2,6.86221E2,-1.6350691E2,5.302215E2,6.540552E2,3.180572E2,7.9410834E2,4.7770703E2,1.2364963E3,8.6908405E2,4.7555267E2,7.755059E2,1.1338721E3,8.743377E2,1.3572202E3,9.938273E2,6.4320844E2,8.231052E2,4.7914825E2,1.637403E2,1.0628752E3,1.4062428E3,1.01672363E3,4.6856796E2],"categories":[],"categories_nodes":[],"categories_segments":[],"categories_sizes":[],"default_left":[true,true,true,true,true,true,true,true,true,true,true,true,true,true,true,true,true,true,true,true,true,true,true,true,true,true,true,true,true,true,false,true,true,true,true,true,true,true,true,true,true,false,false,true,true,true,true,true,true,true,true,true,true,true,true,true,true,true,true,true,true,false,false,false,false,false,false,false,false,false,false,false,false,false,false,false,false,false,false,false,false,false,false,false,false,false,false,false,false,false,false,false,false,false,false,false,false,false,false,false,false,false,false,false,false,false,false,false,false,false,false,false,false,false,false,false,false],"id":7,"left_children":[1,3,5,7,9,11,13,15,17,19,21,23,25,27,29,31,33,35,37,39,41,43,45,47,49,51,53,55,57,59,-1,61,63,65,67,69,71,73,75,77,79,-1,-1,81,83,85,87,89,91,93,95,97,99,101,103,105,107,109,111,113,115,-1,-1,-1,-1,-1,-1,-1,-1,-1,-1,-1,-1,-1,-1,-1,-1,-1,-1,-1,-1,-1,-1,-1,-1,-1,-1,-1,-1,-1,-1,-1,-1,-1,-1,-1,-1,-1,-1,-1,-1,-1,-1,-1,-1,-1,-1,-1,-1,-1,-1,-1,-1,-1,-1,-1,-1],"loss_changes":[1.479468E9,1.6264093E8,2.0603853E8,2.2102596E7,1.2186976E7,3.5835136E7,2.2636544E7,2.429414E6,3.22656E6,1.64128E6,3.425792E6,7.920128E6,9.181824E6,7.730176E6,4.82816E6,3.1877388E5,2.51142E5,5.24336E5,5.57144E5,1.90552E6,1.4386145E5,1.05368E6,4.608256E6,3.760096E6,5.033408E6,3.270224E6,1.4075008E7,5.833984E6,3.3154E6,3.960832E6,0E0,4.2087684E4,1.9629325E5,7.5661E4,2.119915E5,6.69245E4,5.27756E5,1.180124E6,2.991025E5,1.490864E6,4.8758E5,0E0,0E0,2.461752E6,1.002934E6,6.05044E6,4.349328E6,1.2863008E7,2.863489E6,5.08832E6,7.856258E6,7.112024E6,4.584432E6,8.078112E6,1.3477632E7,4.71552E6,1.042216E6,3.5776E4,8.34203E5,4.566528E6,4.016256E6,0E0,0E0,0E0,0E0,0E0,0E0,0E0,0E0,0E0,0E0,0E0,0E0,0E0,0E0,0E0,0E0,0E0,0E0,0E0,0E0,0E0,0E0,0E0,0E0,0E0,0E0,0E0,0E0,0E0,0E0,0E0,0E0,0E0,0E0,0E0,0E0,0E0,0E0,0E0,0E0,0E0,0E0,0E0,0E0,0E0,0E0,0E0,0E0,0E0,0E0,0E0,0E0,0E0,0E0,0E0,0E0],"parents":[2147483647,0,0,1,1,2,2,3,3,4,4,5,5,6,6,7,7,8,8,9,9,10,10,11,11,12,12,13,13,14,14,15,15,16,16,17,17,18,18,19,19,20,20,21,21,22,22,23,23,24,24,25,25,26,26,27,27,28,28,29,29,31,31,32,32,33,33,34,34,35,35,36,36,37,37,38,38,39,39,40,40,43,43,44,44,45,45,46,46,47,47,48,48,49,49,50,50,51,51,52,52,53,53,54,54,55,55,56,56,57,57,58,58,59,59,60,60],"right_children":[2,4,6,8,10,12,14,16,18,20,22,24,26,28,30,32,34,36,38,40,42,44,46,48,50,52,54,56,58,60,-1,62,64,66,68,70,72,74,76,78,80,-1,-1,82,84,86,88,90,92,94,96,98,100,102,104,106,108,110,112,114,116,-1,-1,-1,-1,-1,-1,-1,-1,-1,-1,-1,-1,-1,-1,-1,-1,-1,-1,-1,-1,-1,-1,-1,-1,-1,-1,-1,-1,-1,-1,-1,-1,-1,-1,-1,-1,-1,-1,-1,-1,-1,-1,-1,-1,-1,-1,-1,-1,-1,-1,-1,-1,-1,-1,-1,-1],"split_conditions":[4.2325515E-1,2.2019024E-1,7.2671545E-1,8.907249E-2,3.1516504E-1,5.9983885E-1,8.9785874E-1,4.5395914E-2,1.622814E-1,3.1401944E-1,8.5E0,5.002668E-1,9.5E0,6.145484E1,1.186377E0,1.249989E-2,6.579086E-2,2.4076674E1,1.65E1,4.267891E1,1.5E1,2.487312E1,2.7648445E1,4.9218517E1,5.164911E1,4.602395E1,2.7884586E1,5.9737522E1,1.25E1,5.5228203E1,4.843024E2,4.3928497E-3,4.470768E-2,1.75E1,8.796932E-2,2.3036804E1,2.4207579E1,9E0,2.8174286E1,3.071027E1,3.2323215E1,4.240589E0,4.4168686E1,3.4155643E1,2.6269844E1,2.728529E1,7.5E0,4.9048492E1,1.2E1,1.05E1,5.1963303E1,2.7264725E1,4.9124535E1,4.370925E1,4.6713104E1,2.6826645E1,1.25E1,1.15E1,2.25E1,5.3711006E1,1.35E1,-4.721707E0,2.4332438E0,1.0451052E1,-2.038901E1,2.0676218E1,1.146908E1,2.8499306E1,4.134685E0,3.4036774E1,2.1958305E1,5.4287487E1,4.215812E1,5.8928574E1,8.40181E1,8.7495255E1,4.5785736E1,9.6358765E1,7.460507E1,9.8608894E1,1.3908797E2,1.05006424E2,1.5709377E2,8.732824E1,1.3528458E2,1.5198059E2,2.9106903E2,1.630252E2,1.1218781E2,1.6082141E2,3.945047E2,-2.069524E1,1.2249182E2,1.74847E2,2.0586632E2,-4.9052074E1,1.5906645E2,1.9621657E2,9.541716E1,2.3823251E2,1.4331212E2,3.709489E2,2.6072522E2,1.426658E2,2.3265178E2,3.4016162E2,2.6230133E2,4.0716608E2,2.981482E2,1.9296254E2,2.4693158E2,1.4374448E2,4.912209E1,3.1886258E2,4.2187286E2,3.050171E2,1.4057039E2],"split_indices":[4,4,4,4,4,4,4,4,4,4,0,4,0,3,4,4,4,3,0,3,0,2,2,3,3,3,2,3,0,3,0,4,4,0,4,2,2,0,2,2,2,0,0,3,2,2,1,3,0,0,3,2,3,3,3,2,0,0,1,3,0,0,0,0,0,0,0,0,0,0,0,0,0,0,0,0,0,0,0,0,0,0,0,0,0,0,0,0,0,0,0,0,0,0,0,0,0,0,0,0,0,0,0,0,0,0,0,0,0,0,0,0,0,0,0,0,0],"split_type":[0,0,0,0,0,0,0,0,0,0,0,0,0,0,0,0,0,0,0,0,0,0,0,0,0,0,0,0,0,0,0,0,0,0,0,0,0,0,0,0,0,0,0,0,0,0,0,0,0,0,0,0,0,0,0,0,0,0,0,0,0,0,0,0,0,0,0,0,0,0,0,0,0,0,0,0,0,0,0,0,0,0,0,0,0,0,0,0,0,0,0,0,0,0,0,0,0,0,0,0,0,0,0,0,0,0,0,0,0,0,0,0,0,0,0,0,0],"sum_hessian":[1.9696E4,9.635E3,1.0061E4,5.751E3,3.884E3,6.297E3,3.764E3,3.125E3,2.626E3,1.853E3,2.031E3,3.917E3,2.38E3,2.32E3,1.444E3,1.736E3,1.389E3,1.742E3,8.84E2,1.821E3,3.2E1,7.29E2,1.302E3,1.659E3,2.258E3,6.11E2,1.769E3,2.214E3,1.06E2,1.427E3,1.7E1,6.16E2,1.12E3,6.23E2,7.66E2,2.37E2,1.505E3,7.11E2,1.73E2,1.66E3,1.61E2,1.6E1,1.6E1,4.23E2,3.06E2,4.11E2,8.91E2,1.575E3,8.4E1,2.1E3,1.58E2,3.33E2,2.78E2,3.4E2,1.429E3,2.142E3,7.2E1,6.9E1,3.7E1,2.41E2,1.186E3,8.5E1,5.31E2,1.102E3,1.8E1,5.23E2,1E2,7.32E2,3.4E1,1.72E2,6.5E1,5.09E2,9.96E2,3.9E2,3.21E2,1.8E1,1.55E2,1.266E3,3.94E2,5.4E1,1.07E2,3.02E2,1.21E2,2.55E2,5.1E1,3.8E2,3.1E1,2.03E2,6.88E2,1.554E3,2.1E1,1.5E1,6.9E1,8.98E2,1.202E3,1.8E1,1.4E2,2.44E2,8.9E1,2.12E2,6.6E1,9E1,2.5E2,1.77E2,1.252E3,8.4E1,2.058E3,3.6E1,3.6E1,3.7E1,3.2E1,2.1E1,1.6E1,1.71E2,7E1,1.17E3,1.6E1],"tree_param":{"num_deleted":"0","num_feature":"5","num_nodes":"117","size_leaf_vector":"0"}},{"base_weights":[3.4469388E2,1.5161783E2,5.359011E2,7.351217E1,2.6248233E2,4.591579E2,6.6602405E2,3.1240734E1,1.1894421E2,2.2129695E2,3.0448254E2,4.0324622E2,5.125875E2,5.923385E2,7.072277E2,1.1605116E1,4.8975597E1,9.6153046E1,1.4777412E2,1.828409E2,2.4613687E2,3.148799E2,1.594327E2,4.233575E2,3.3442004E2,5.202387E2,2.3066904E1,6.104225E2,1.6465085E2,6.791407E2,7.8144354E2,5.9932437E0,2.2298002E1,3.9462456E1,5.769327E1,1.1058165E2,7.389431E1,1.2553568E2,1.8236307E2,1.8806339E2,-2.183353E1,2.997968E2,1.9867078E2,3.0508643E2,5.0062048E2,-2.714682E1,3.3573834E2,3.6032803E2,4.834154E2,2.3706714E2,4.066537E2,5.1167993E2,9.1007965E2,-2.1176178E1,9.636752E1,7.066309E2,5.72387E2,-1.5234639E2,9.468533E2,6.8602985E2,6.2361767E1,3.6875507E2,8.0769745E2,-1.7730545E0,1.0012313E1,2.0166723E1,3.7129498E1,-4.995732E0,4.0746475E1,4.3543774E1,6.8627396E1,8.6394905E1,1.4994815E2,1.0294938E2,4.0749E1,7.590521E1,1.6441731E2,2.0613258E2,1.4104544E2,2.0306593E2,1.16554665E2,3.234383E2,1.2259333E2,2.2964667E2,1.0767208E2,3.2086633E2,2.4186429E2,5.563502E2,2.4060086E2,4.1547764E1,-2.4870753E2,3.6935538E2,1.8785219E2,3.6984784E2,1.5280273E1,5.4256696E2,3.968314E2,2.923141E2,1.3273401E2,3.4181757E2,5.181934E2,5.4183136E2,4.2024146E2,4.9232455E2,1.0130844E3,-1.3317871E0,-4.35777E1,6.333564E2,1.3584731E3,1.4409611E1,5.932711E2,-5.52313E1,-2.3758235E2,8.4051044E2,6.622496E2,5.3630994E2,1.9161928E2,8.5765326E2,6.56469E2],"categories":[],"categories_nodes":[],"categories_segments":[],"categories_sizes":[],"default_left":[true,true,true,true,true,true,true,true,true,true,true,true,true,true,true,true,true,true,true,true,true,true,true,true,true,true,true,true,true,true,true,true,true,true,true,true,true,true,true,true,false,true,true,true,true,true,true,true,true,true,true,true,true,true,false,true,true,true,false,true,false,true,true,false,false,false,false,false,false,false,false,false,false,false,false,false,false,false,false,false,false,false,false,false,false,false,false,false,false,false,false,false,false,false,false,false,false,false,false,false,false,false,false,false,false,false,false,false,false,false,false,false,false,false,false,false,false,false,false],"id":8,"left_children":[1,3,5,7,9,11,13,15,17,19,21,23,25,27,29,31,33,35,37,39,41,43,45,47,49,51,53,55,57,59,61,63,65,67,69,71,73,75,77,79,-1,81,83,85,87,89,91,93,95,97,99,101,103,105,-1,107,109,111,-1,113,-1,115,117,-1,-1,-1,-1,-1,-1,-1,-1,-1,-1,-1,-1,-1,-1,-1,-1,-1,-1,-1,-1,-1,-1,-1,-1,-1,-1,-1,-1,-1,-1,-1,-1,-1,-1,-1,-1,-1,-1,-1,-1,-1,-1,-1,-1,-1,-1,-1,-1,-1,-1,-1,-1,-1,-1,-1,-1],"loss_changes":[7.270838E8,8.485765E7,9.851597E7,1.104287E7,6.94E6,1.8398464E7,1.072064E7,1.03752E6,1.807184E6,1.912296E6,2.970608E6,4.077408E6,1.1902144E7,1.0124224E7,4.363648E6,8.483645E4,1.2759575E5,4.89951E5,9.17074E5,8.67784E5,3.103848E6,3.245248E6,4.482837E6,8.74048E6,4.783912E6,9.984448E6,1.6419295E5,4.235584E6,1.378183E7,7.227392E6,6.614688E6,2.904611E4,1.46453125E4,4.3131625E4,1.2310225E5,8.81112E5,5.86148E5,1.429016E6,4.38405E5,8.21708E5,0E0,2.394368E6,1.841296E6,1.695184E6,1.199298E6,1.0300746E6,2.7862E5,3.781696E6,5.945952E6,1.678898E6,2.693896E6,8.228032E6,2.341264E6,1.4167392E4,0E0,1.60956E7,1.0642144E7,3.1798588E5,0E0,5.659008E6,0E0,1.084431E6,3.96224E6,0E0,0E0,0E0,0E0,0E0,0E0,0E0,0E0,0E0,0E0,0E0,0E0,0E0,0E0,0E0,0E0,0E0,0E0,0E0,0E0,0E0,0E0,0E0,0E0,0E0,0E0,0E0,0E0,0E0,0E0,0E0,0E0,0E0,0E0,0E0,0E0,0E0,0E0,0E0,0E0,0E0,0E0,0E0,0E0,0E0,0E0,0E0,0E0,0E0,0E0,0E0,0E0,0E0,0E0,0E0,0E0],"parents":[2147483647,0,0,1,1,2,2,3,3,4,4,5,5,6,6,7,7,8,8,9,9,10,10,11,11,12,12,13,13,14,14,15,15,16,16,17,17,18,18,19,19,20,20,21,21,22,22,23,23,24,24,25,25,26,26,27,27,28,28,29,29,30,30,31,31,32,32,33,33,34,34,35,35,36,36,37,37,38,38,39,39,41,41,42,42,43,43,44,44,45,45,46,46,47,47,48,48,49,49,50,50,51,51,52,52,53,53,55,55,56,56,57,57,59,59,61,61,62,62],"right_children":[2,4,6,8,10,12,14,16,18,20,22,24,26,28,30,32,34,36,38,40,42,44,46,48,50,52,54,56,58,60,62,64,66,68,70,72,74,76,78,80,-1,82,84,86,88,90,92,94,96,98,100,102,104,106,-1,108,110,112,-1,114,-1,116,118,-1,-1,-1,-1,-1,-1,-1,-1,-1,-1,-1,-1,-1,-1,-1,-1,-1,-1,-1,-1,-1,-1,-1,-1,-1,-1,-1,-1,-1,-1,-1,-1,-1,-1,-1,-1,-1,-1,-1,-1,-1,-1,-1,-1,-1,-1,-1,-1,-1,-1,-1,-1,-1,-1,-1,-1],"split_conditions":[4.2799968E-1,2.2019024E-1,7.3292035E-1,8.635491E-2,3.224304E-1,5.722854E-1,8.219504E-1,3.4723237E-2,1.4924094E-1,8.5E0,4.6530113E1,1.45E1,5.9269028E1,8.1679523E-1,9.66915E-1,2.3226272E-2,5.4635935E-2,1.65E1,2.25E1,3.208332E-1,1.55E1,4.588765E1,4.8263977E1,1.05E1,4.8053503E-1,5.73919E1,1.35E1,2.8639587E1,1.15E1,9.667623E-1,1.05E1,8.703215E-3,2.25E1,2.0994003E1,7.5E0,8.5E0,2.25E1,7.5E0,3.2809082E1,2.4867752E1,-6.5500593E0,4.434057E1,3.75E1,2.8949287E1,1.55E1,3.1445833E1,3.343297E1,4.752598E1,2.9675808E1,4.566884E1,3.2563038E1,5.09729E1,7.5E0,1.25E1,2.8910257E1,2.8611923E1,2.867881E1,3.75E1,2.84056E2,5.1770386E1,1.870853E1,2.8774082E1,3.169545E1,-5.319164E-1,3.003694E0,6.0500174E0,1.1138849E1,-1.4987196E0,1.2223943E1,1.3063132E1,2.0588219E1,2.5918472E1,4.4984447E1,3.0884815E1,1.2224701E1,2.2771564E1,4.9325195E1,6.183978E1,4.2313633E1,6.091978E1,3.49664E1,9.7031494E1,3.6778E1,6.8894005E1,3.2301624E1,9.62599E1,7.255929E1,1.6690508E2,7.218026E1,1.246433E1,-7.461227E1,1.1080662E2,5.635566E1,1.1095435E2,4.584082E0,1.627701E2,1.1904942E2,8.769423E1,3.9820206E1,1.0254527E2,1.5545804E2,1.6254941E2,1.2607244E2,1.4769737E2,3.0392532E2,-3.9953616E-1,-1.3073311E1,1.9000693E2,4.0754196E2,4.3228836E0,1.7798134E2,-1.6569391E1,-7.127471E1,2.5215314E2,1.9867488E2,1.6089299E2,5.7485786E1,2.57296E2,1.969407E2],"split_indices":[4,4,4,4,4,4,4,4,4,0,3,0,3,4,4,4,4,0,1,4,0,3,3,0,4,3,0,2,0,4,0,4,1,2,0,0,1,0,3,2,0,3,1,2,0,2,2,3,2,3,2,3,1,0,0,2,2,1,0,3,0,2,2,0,0,0,0,0,0,0,0,0,0,0,0,0,0,0,0,0,0,0,0,0,0,0,0,0,0,0,0,0,0,0,0,0,0,0,0,0,0,0,0,0,0,0,0,0,0,0,0,0,0,0,0,0,0,0,0],"split_type":[0,0,0,0,0,0,0,0,0,0,0,0,0,0,0,0,0,0,0,0,0,0,0,0,0,0,0,0,0,0,0,0,0,0,0,0,0,0,0,0,0,0,0,0,0,0,0,0,0,0,0,0,0,0,0,0,0,0,0,0,0,0,0,0,0,0,0,0,0,0,0,0,0,0,0,0,0,0,0,0,0,0,0,0,0,0,0,0,0,0,0,0,0,0,0,0,0,0,0,0,0,0,0,0,0,0,0,0,0,0,0,0,0,0,0,0,0,0,0],"sum_hessian":[1.9696E4,9.801E3,9.895E3,5.751E3,4.05E3,6.227E3,3.668E3,2.98E3,2.771E3,2.048E3,2.002E3,3.047E3,3.18E3,1.321E3,2.347E3,1.415E3,1.565E3,1.55E3,1.221E3,8.07E2,1.241E3,1.867E3,1.35E2,2.354E3,6.93E2,3.131E3,4.9E1,1.267E3,5.4E1,1.71E3,6.37E2,9.29E2,4.86E2,7.51E2,8.14E2,9.38E2,6.12E2,7.46E2,4.75E2,7.87E2,2E1,5.8E2,6.61E2,1.776E3,9.1E1,6.6E1,6.9E1,1.152E3,1.202E3,2.97E2,3.96E2,3.066E3,6.5E1,3.1E1,1.8E1,3.54E2,9.13E2,3.9E1,1.5E1,1.691E3,1.9E1,3.9E1,5.98E2,3.17E2,6.12E2,4.27E2,5.9E1,2.1E1,7.3E2,3.57E2,4.57E2,5.83E2,3.55E2,3.25E2,2.87E2,3.29E2,4.17E2,2.99E2,1.76E2,6.49E2,1.38E2,5.11E2,6.9E1,4.92E2,1.69E2,1.418E3,3.58E2,7.4E1,1.7E1,5.1E1,1.5E1,5.5E1,1.4E1,1.121E3,3.1E1,7.11E2,4.91E2,1.93E2,1.04E2,2.53E2,1.43E2,2.302E3,7.64E2,1.4E1,5.1E1,1.7E1,1.4E1,3.2E2,3.4E1,3.3E1,8.8E2,1.9E1,2E1,2.21E2,1.47E3,1.9E1,2E1,4.46E2,1.52E2],"tree_param":{"num_deleted":"0","num_feature":"5","num_nodes":"119","size_leaf_vector":"0"}},{"base_weights":[2.4153186E2,9.289037E1,3.6432544E2,4.1520954E1,1.5627722E2,2.9619043E2,4.5366263E2,1.8425444E1,6.796961E1,1.1941623E2,1.8182877E2,2.677459E2,3.352157E2,4.2294836E2,5.169965E2,6.525611E0,2.9232456E1,5.5691475E1,8.61602E1,1.2718737E2,7.086822E1,1.533894E2,1.9977333E2,2.701233E2,-2.7364444E2,4.3316965E2,3.2018463E2,6.672811E2,4.1553677E2,5.1189532E2,9.1394257E2,-1.0546487E1,7.777045E0,3.1463388E1,1.6313684E1,3.970805E1,6.3136425E1,6.254632E1,1.1149467E2,9.72923E1,1.5793423E2,1.4855083E2,4.987577E1,1.7312303E2,1.1737567E2,3.2695157E2,1.7755124E2,2.2744397E2,2.965635E2,2.0913684E2,4.7289386E2,-1.4394446E1,3.3437238E2,5.0819635E2,7.7682166E2,1.619738E2,4.257519E2,5.326039E2,4.5148367E2,-1.5410483E1,-3.0186489E0,5.6935754E0,1.318678E1,2.3355446E1,3.923399E1,1.8210108E1,-1.570462E1,5.498596E1,1.612396E1,9.6489784E1,4.6914696E1,9.6959076E1,8.580994E0,2.0828456E2,8.833179E1,2.0053622E2,8.8917534E1,4.4806622E2,1.4274875E2,8.077817E1,1.6889787E2,-8.522271E0,6.3933674E1,1.4880142E2,2.1761998E2,9.20292E1,2.4105225E2,4.2532236E2,3.0174835E2,9.155603E1,1.8402803E2,1.5964056E2,2.474892E2,4.3064877E2,2.7314108E2,2.9137042E2,5.8882885E1,6.1039136E2,4.09343E2,2.342495E2,-1.9370407E2,5.228602E2,3.1903412E2,3.1329523E2,-2.1447241E2,4.2864743E2,-9.698202E1,4.524266E2,5.6354663E2,5.4793884E2,3.7906512E2],"categories":[],"categories_nodes":[],"categories_segments":[],"categories_sizes":[],"default_left":[true,true,true,true,true,true,true,true,true,true,true,true,true,true,true,true,true,true,true,true,true,true,true,true,false,true,true,true,true,true,false,true,true,true,true,true,true,true,true,true,true,true,true,true,true,true,true,true,true,true,true,true,true,false,false,true,true,true,true,false,false,false,false,false,false,false,false,false,false,false,false,false,false,false,false,false,false,false,false,false,false,false,false,false,false,false,false,false,false,false,false,false,false,false,false,false,false,false,false,false,false,false,false,false,false,false,false,false,false,false,false],"id":9,"left_children":[1,3,5,7,9,11,13,15,17,19,21,23,25,27,29,31,33,35,37,39,41,43,45,47,-1,49,51,53,55,57,-1,59,61,63,65,67,69,71,73,75,77,79,81,83,85,87,89,91,93,95,97,99,101,-1,-1,103,105,107,109,-1,-1,-1,-1,-1,-1,-1,-1,-1,-1,-1,-1,-1,-1,-1,-1,-1,-1,-1,-1,-1,-1,-1,-1,-1,-1,-1,-1,-1,-1,-1,-1,-1,-1,-1,-1,-1,-1,-1,-1,-1,-1,-1,-1,-1,-1,-1,-1,-1,-1,-1,-1],"loss_changes":[3.594802E8,2.9012288E7,6.551987E7,3.006549E6,3.735352E6,6.705984E6,8.855936E6,3.3803156E5,5.07783E5,6.08206E5,1.17068E6,4.637936E6,3.655552E6,5.421632E6,2.608E6,2.6851863E4,3.9202E4,1.608745E5,5.452065E5,1.279758E6,3.644015E5,6.29952E5,4.011632E6,3.917104E6,0E0,2.926936E6,1.0628416E7,1.191008E6,7.849216E6,1.638624E6,0E0,3.1024043E3,1.3089469E4,7.3049875E4,1.2733633E4,1.5729188E5,5.0135425E5,8.905736E5,9.7702E5,6.021185E5,2.989254E6,5.2547375E4,1.4913753E5,6.05056E5,1.0028845E6,3.99744E5,6.67112E5,1.80212E6,6.719472E6,6.3770725E5,2.266708E6,4.147126E6,6.04032E6,0E0,0E0,6.902919E6,4.48848E6,2.506272E6,2.516496E6,0E0,0E0,0E0,0E0,0E0,0E0,0E0,0E0,0E0,0E0,0E0,0E0,0E0,0E0,0E0,0E0,0E0,0E0,0E0,0E0,0E0,0E0,0E0,0E0,0E0,0E0,0E0,0E0,0E0,0E0,0E0,0E0,0E0,0E0,0E0,0E0,0E0,0E0,0E0,0E0,0E0,0E0,0E0,0E0,0E0,0E0,0E0,0E0,0E0,0E0,0E0,0E0],"parents":[2147483647,0,0,1,1,2,2,3,3,4,4,5,5,6,6,7,7,8,8,9,9,10,10,11,11,12,12,13,13,14,14,15,15,16,16,17,17,18,18,19,19,20,20,21,21,22,22,23,23,25,25,26,26,27,27,28,28,29,29,31,31,32,32,33,33,34,34,35,35,36,36,37,37,38,38,39,39,40,40,41,41,42,42,43,43,44,44,45,45,46,46,47,47,48,48,49,49,50,50,51,51,52,52,55,55,56,56,57,57,58,58],"right_children":[2,4,6,8,10,12,14,16,18,20,22,24,26,28,30,32,34,36,38,40,42,44,46,48,-1,50,52,54,56,58,-1,60,62,64,66,68,70,72,74,76,78,80,82,84,86,88,90,92,94,96,98,100,102,-1,-1,104,106,108,110,-1,-1,-1,-1,-1,-1,-1,-1,-1,-1,-1,-1,-1,-1,-1,-1,-1,-1,-1,-1,-1,-1,-1,-1,-1,-1,-1,-1,-1,-1,-1,-1,-1,-1,-1,-1,-1,-1,-1,-1,-1,-1,-1,-1,-1,-1,-1,-1,-1,-1,-1,-1],"split_conditions":[3.8481575E-1,1.64446E-1,6.777996E-1,7.393803E-2,2.6071727E-1,5.572389E-1,8.927884E-1,3.0794244E-2,1.2896615E-1,1.65E1,8.5E0,5.5704325E-1,4.300936E1,2.6581776E1,1.186377E0,4.3928497E-3,1.75E1,7.5E0,9E0,8.5E0,3.0114555E1,2.4579498E1,2.5797144E1,1.05E1,-8.209334E1,8.5E0,4.3251945E1,2.5720928E1,4.5319588E1,6.038082E1,2.7418277E2,2.7661697E1,2.3226272E-2,2.3464325E1,5.449349E-2,2.3012333E1,2.5889736E1,2.3365143E1,1.55E1,1.7424873E-1,2.7729969E1,1.9151941E-1,3.075938E1,3.75E1,2.6269844E1,3.158342E1,9.5E0,7.5E0,1.15E1,2.674032E1,2.6155193E1,9.5E0,4.3797348E1,1.5245891E2,2.3304651E2,3.75E1,8.927469E-1,2.9588924E1,2.25E1,-4.623145E0,-9.055947E-1,1.7080727E0,3.9560342E0,7.006634E0,1.1770197E1,5.4630327E0,-4.711386E0,1.6495789E1,4.8371882E0,2.8946936E1,1.40744095E1,2.9087725E1,2.5742981E0,6.248537E1,2.6499537E1,6.016087E1,2.667526E1,1.3441988E2,4.2824627E1,2.4233452E1,5.0669365E1,-2.5566814E0,1.9180103E1,4.4640427E1,6.5285995E1,2.760876E1,7.2315674E1,1.2759671E2,9.0524506E1,2.746681E1,5.5208412E1,4.789217E1,7.4246765E1,1.2919464E2,8.194233E1,8.741113E1,1.7664865E1,1.8311742E2,1.228029E2,7.027485E1,-5.8111225E1,1.5685808E2,9.5710236E1,9.398857E1,-6.434173E1,1.2859424E2,-2.9094606E1,1.3572798E2,1.69064E2,1.6438165E2,1.1371954E2],"split_indices":[4,4,4,4,4,4,4,4,4,0,0,4,3,2,4,4,0,0,0,0,2,2,2,0,0,0,3,2,3,3,0,2,4,2,4,2,2,2,0,4,3,4,2,1,2,3,0,1,0,2,2,0,3,0,0,1,4,2,1,0,0,0,0,0,0,0,0,0,0,0,0,0,0,0,0,0,0,0,0,0,0,0,0,0,0,0,0,0,0,0,0,0,0,0,0,0,0,0,0,0,0,0,0,0,0,0,0,0,0,0,0],"split_type":[0,0,0,0,0,0,0,0,0,0,0,0,0,0,0,0,0,0,0,0,0,0,0,0,0,0,0,0,0,0,0,0,0,0,0,0,0,0,0,0,0,0,0,0,0,0,0,0,0,0,0,0,0,0,0,0,0,0,0,0,0,0,0,0,0,0,0,0,0,0,0,0,0,0,0,0,0,0,0,0,0,0,0,0,0,0,0,0,0,0,0,0,0,0,0,0,0,0,0,0,0,0,0,0,0,0,0,0,0,0,0],"sum_hessian":[1.9696E4,8.911E3,1.0785E4,4.923E3,3.988E3,6.121E3,4.664E3,2.629E3,2.294E3,1.635E3,2.353E3,3.545E3,2.576E3,3.146E3,1.518E3,1.252E3,1.377E3,1.372E3,9.22E2,1.408E3,2.27E2,9.14E2,1.439E3,3.53E3,1.5E1,3.39E2,2.237E3,9E1,3.056E3,1.501E3,1.7E1,8.5E1,1.167E3,1.173E3,2.04E2,4.38E2,9.34E2,4.79E2,4.43E2,7.16E2,6.92E2,4.7E1,1.8E2,5.88E2,3.26E2,2.12E2,1.227E3,1.354E3,2.176E3,5.2E1,2.87E2,9.1E1,2.146E3,3.9E1,5.1E1,1.19E2,2.937E3,1.112E3,3.89E2,5.1E1,3.4E1,8.44E2,3.23E2,5.76E2,5.97E2,1.93E2,1.1E1,2.65E2,1.73E2,3.04E2,6.3E2,2.92E2,1.87E2,8.4E1,3.59E2,5.2E1,6.64E2,3.3E1,6.59E2,1.2E1,3.5E1,3.5E1,1.45E2,3.83E2,2.05E2,2.72E2,5.4E1,4E1,1.72E2,8.7E1,1.14E3,3.11E2,1.043E3,3.21E2,1.855E3,3.3E1,1.9E1,8.8E1,1.99E2,3.8E1,5.3E1,1.59E2,1.987E3,8.5E1,3.4E1,2.921E3,1.6E1,3.14E2,7.98E2,1.64E2,2.25E2],"tree_param":{"num_deleted":"0","num_feature":"5","num_nodes":"111","size_leaf_vector":"0"}},{"base_weights":[1.6924335E2,7.596965E1,2.6690045E2,3.583712E1,1.2932602E2,2.072681E2,3.096009E2,1.777712E1,6.145388E1,1.3183951E2,-4.1829486E2,2.1009406E2,-4.3239594E2,2.443394E2,3.325078E2,6.350027E0,2.8184732E1,6.2759754E1,-8.124576E1,1.063829E2,1.5274606E2,6.597491E2,2.0755574E2,2.3136525E2,7.5111194E2,3.781006E2,2.927827E2,4.617508E-1,9.247352E0,2.7110147E1,6.37887E1,2.3792871E1,6.680043E1,1.100788E2,-9.265993E1,1.6092546E2,3.6844807E1,1.5897647E2,2.2767723E2,2.9734766E2,1.6336717E2,9.9312756E2,4.2220456E2,7.507281E2,3.6695663E2,5.377172E1,3.156427E2,-7.446828E0,1.9822788E0,7.0452795E0,1.7912209E1,2.8752459E1,-2.1194147E1,9.5329254E1,5.6504354E0,3.1789967E1,-2.457994E0,1.28247E2,6.1351093E1,1.0536796E2,2.6137378E2,-1.4210861E2,-2.196727E1,1.1851302E2,1.8326932E2,-7.070801E1,1.7152771E2,2.2424005E2,9.5855225E1,4.1217325E2,2.1807419E2,2.0536327E2,3.9186288E2,-1.1827629E2,2.2856859E2,2.8666083E2,1.6149261E3,-2.2213567E2,3.796048E2,-6.113139E1,3.4736386E2,4.322297E2,2.8515854E2],"categories":[],"categories_nodes":[],"categories_segments":[],"categories_sizes":[],"default_left":[true,true,true,true,true,true,true,true,true,true,false,true,false,true,true,true,true,true,false,true,true,false,true,true,true,true,true,true,true,true,true,true,true,true,true,true,true,true,true,true,true,false,false,true,true,true,true,false,false,false,false,false,false,false,false,false,false,false,false,false,false,false,false,false,false,false,false,false,false,false,false,false,false,false,false,false,false,false,false,false,false,false,false],"id":10,"left_children":[1,3,5,7,9,11,13,15,17,19,-1,21,-1,23,25,27,29,31,-1,33,35,-1,37,39,41,43,45,47,49,51,53,55,57,59,61,63,65,67,69,71,73,-1,-1,75,77,79,81,-1,-1,-1,-1,-1,-1,-1,-1,-1,-1,-1,-1,-1,-1,-1,-1,-1,-1,-1,-1,-1,-1,-1,-1,-1,-1,-1,-1,-1,-1,-1,-1,-1,-1,-1,-1],"loss_changes":[1.7939654E8,2.1571364E7,2.4436544E7,2.6600055E6,6.008248E6,7.354048E6,8.29792E6,4.0120562E5,4.48233E5,2.275448E6,0E0,4.42968E6,0E0,9.425624E6,7.398464E6,2.7462727E4,6.5836875E4,3.69526E5,0E0,1.441022E6,2.233252E6,0E0,3.854208E6,6.344936E6,2.446324E6,7.726432E6,1.211264E7,6.412177E3,2.0461812E4,1.3674062E5,9.2980734E4,4.689268E4,7.07022E5,1.333766E6,1.22722E5,2.068812E6,2.2863558E6,4.794222E6,4.892208E6,6.196536E6,1.2954976E7,0E0,0E0,2.1594594E7,1.4039936E7,6.5994915E6,7.077264E6,0E0,0E0,0E0,0E0,0E0,0E0,0E0,0E0,0E0,0E0,0E0,0E0,0E0,0E0,0E0,0E0,0E0,0E0,0E0,0E0,0E0,0E0,0E0,0E0,0E0,0E0,0E0,0E0,0E0,0E0,0E0,0E0,0E0,0E0,0E0,0E0],"parents":[2147483647,0,0,1,1,2,2,3,3,4,4,5,5,6,6,7,7,8,8,9,9,11,11,13,13,14,14,15,15,16,16,17,17,19,19,20,20,22,22,23,23,24,24,25,25,26,26,27,27,28,28,29,29,30,30,31,31,32,32,33,33,34,34,35,35,36,36,37,37,38,38,39,39,40,40,43,43,44,44,45,45,46,46],"right_children":[2,4,6,8,10,12,14,16,18,20,-1,22,-1,24,26,28,30,32,-1,34,36,-1,38,40,42,44,46,48,50,52,54,56,58,60,62,64,66,68,70,72,74,-1,-1,76,78,80,82,-1,-1,-1,-1,-1,-1,-1,-1,-1,-1,-1,-1,-1,-1,-1,-1,-1,-1,-1,-1,-1,-1,-1,-1,-1,-1,-1,-1,-1,-1,-1,-1,-1,-1,-1,-1],"split_conditions":[4.4215235E-1,2.2019024E-1,6.284248E-1,1.018012E-1,4.4178158E-1,6.271845E-1,1.05E1,4.1408986E-2,2.1977907E-1,3.1917948E-1,-1.25488464E2,4.4351047E-1,-1.2971878E2,3.0125107E1,3.0570099E1,1.0895026E-2,3.254417E1,2.4076674E1,-2.4373728E1,3.181635E-1,4.6596302E1,1.9792473E2,9.5E0,2.805333E1,3.75E1,6.3673913E-1,3.087532E1,4.3928497E-3,2.25E1,3.2556778E1,3.2941685E1,1.5996683E-1,2.5404964E1,3.1516504E-1,1.4E1,8.5E0,4.8263977E1,2.6256039E1,3.90281E1,9.5E0,7.117075E-1,2.979383E2,1.2666137E2,7.5E0,6.38875E-1,9.60572E-1,3.1353977E1,-2.2340484E0,5.9468365E-1,2.113584E0,5.373663E0,8.625738E0,-6.3582444E0,2.8598778E1,1.6951307E0,9.53699E0,-7.373982E-1,3.84741E1,1.8405329E1,3.1610388E1,7.841214E1,-4.2632584E1,-6.5901814E0,3.555391E1,5.4980797E1,-2.1212402E1,5.1458317E1,6.727202E1,2.8756569E1,1.2365198E2,6.542226E1,6.1608982E1,1.1755887E2,-3.5482887E1,6.857058E1,8.599825E1,4.8447787E2,-6.66407E1,1.1388145E2,-1.8339418E1,1.0420916E2,1.2966891E2,8.554756E1],"split_indices":[4,4,4,4,4,4,0,4,4,4,0,4,0,2,2,4,2,3,0,4,3,0,0,2,1,4,2,4,1,3,2,4,3,4,0,0,3,2,3,0,4,0,0,1,4,4,2,0,0,0,0,0,0,0,0,0,0,0,0,0,0,0,0,0,0,0,0,0,0,0,0,0,0,0,0,0,0,0,0,0,0,0,0],"split_type":[0,0,0,0,0,0,0,0,0,0,0,0,0,0,0,0,0,0,0,0,0,0,0,0,0,0,0,0,0,0,0,0,0,0,0,0,0,0,0,0,0,0,0,0,0,0,0,0,0,0,0,0,0,0,0,0,0,0,0,0,0,0,0,0,0,0,0,0,0,0,0,0,0,0,0,0,0,0,0,0,0,0,0],"sum_hessian":[1.9696E4,1.0075E4,9.621E3,5.751E3,4.324E3,4.017E3,5.604E3,3.374E3,2.377E3,4.305E3,1.9E1,4E3,1.7E1,1.459E3,4.145E3,1.609E3,1.765E3,2.356E3,2.1E1,1.944E3,2.361E3,2.1E1,3.979E3,1.424E3,3.5E1,1.926E3,2.219E3,5.31E2,1.078E3,1.715E3,5E1,2.22E2,2.134E3,1.909E3,3.5E1,2.205E3,1.56E2,1.168E3,2.811E3,7.21E2,7.03E2,1.9E1,1.6E1,5.4E1,1.872E3,1.94E2,2.025E3,8.5E1,4.46E2,8.61E2,2.17E2,1.659E3,5.6E1,3.2E1,1.8E1,1.7E2,5.2E1,1.72E2,1.962E3,1.853E3,5.6E1,2E1,1.5E1,7.63E2,1.442E3,8.7E1,6.9E1,5.73E2,5.95E2,1.37E2,2.674E3,3.67E2,3.54E2,1.32E2,5.71E2,3.6E1,1.8E1,3.9E1,1.833E3,1.4E2,5.4E1,4.17E2,1.608E3],"tree_param":{"num_deleted":"0","num_feature":"5","num_nodes":"83","size_leaf_vector":"0"}},{"base_weights":[1.1857411E2,6.0253902E1,1.9695186E2,2.944958E1,1.0289382E2,1.7259259E2,2.4653268E2,1.4680155E1,5.254488E1,1.11034325E2,6.352501E1,1.7849692E2,-3.1987694E1,1.5337025E2,2.6568335E2,7.0045347E0,2.4880453E1,3.512812E1,6.778912E1,7.900245E1,1.2843735E2,7.739347E1,-7.415749E1,1.7347395E2,4.7404874E2,-7.92254E2,1.8114278E2,2.5998828E2,9.717758E1,3.525076E2,2.3768866E2,2.3189795E0,1.1291465E1,7.078967E1,2.3883654E1,3.2719902E1,2.0022046E2,2.1056117E2,5.5458572E1,8.574542E1,-5.482204E1,2.0074188E2,1.17100876E2,1.44355E2,5.577054E1,1.4646572E1,-1.6575752E2,1.2775044E2,1.8914676E2,2.4288568E2,5.238715E2,-4.761457E2,-1.0989484E3,5.01572E2,4.5895317E1,1.9390685E2,5.351123E2,-3.804532E2,1.608557E2,2.6801508E2,6.307618E2,2.45372E2,-1.7431996E0,3.6830916E0,-2.6234815E0,1.2621088E1,-1.5930015E1,5.755049E1,8.3741745E1,1.2482199E1,2.9347782E1,4.4992367E1,-7.639895E0,2.8409293E2,1.744193E2,1.09926865E2,4.1129574E1,8.201331E1,3.5073032E2,5.798093E1,-9.744315E1,1.8251787E2,2.9489407E2,1.2211766E2,-3.067728E1,1.0732938E2,2.7546478E2,-2.0320695E2,6.423713E1,4.883131E1,-1.6979935E1,-1.3417476E2,-1.8861621E2,1.7355484E2,8.595067E1,2.4707153E2,1.5230931E2,3.3737616E2,6.7489795E2,1.1453452E2,-2.5154922E2,3.1186618E2,3.1156387E1,7.315784E1,2.9868542E2,3.5568488E2,1.0539143E1,1.1192081E3,4.5808664E2,2.1926408E2,3.2189398E2,-1.8101118E2,3.7680826E2],"categories":[],"categories_nodes":[],"categories_segments":[],"categories_sizes":[],"default_left":[true,true,true,true,true,true,true,true,true,true,true,true,true,true,true,true,true,true,true,true,true,true,true,true,true,true,true,true,true,true,true,true,true,true,true,true,false,true,true,true,true,true,true,true,true,true,true,true,true,false,false,false,false,true,true,true,false,false,true,true,true,true,true,false,false,false,false,false,false,false,false,false,false,false,false,false,false,false,false,false,false,false,false,false,false,false,false,false,false,false,false,false,false,false,false,false,false,false,false,false,false,false,false,false,false,false,false,false,false,false,false,false,false],"id":11,"left_children":[1,3,5,7,9,11,13,15,17,19,21,23,25,27,29,31,33,35,37,39,41,43,45,47,49,51,53,55,57,59,61,63,65,67,69,71,-1,73,75,77,79,81,83,85,87,89,91,93,95,-1,-1,-1,-1,97,99,101,-1,-1,103,105,107,109,111,-1,-1,-1,-1,-1,-1,-1,-1,-1,-1,-1,-1,-1,-1,-1,-1,-1,-1,-1,-1,-1,-1,-1,-1,-1,-1,-1,-1,-1,-1,-1,-1,-1,-1,-1,-1,-1,-1,-1,-1,-1,-1,-1,-1,-1,-1,-1,-1,-1,-1],"loss_changes":[9.002326E7,1.4832884E7,1.0106176E7,2.236532E6,1.511068E6,6.815888E6,4.894144E6,3.131568E5,6.767815E5,2.177292E6,1.5600275E6,8.053072E6,2.5907224E7,2.814542E6,5.489616E6,4.5871797E4,7.692875E4,4.689525E5,2.387827E6,1.253588E6,2.059296E6,1.0633985E6,6.125119E5,3.838384E6,9.20824E5,2.869942E6,5.394135E6,2.859675E6,9.550561E6,1.292624E7,3.19588E6,7.3787466E3,4.3380875E4,1.3537188E3,1.04482875E5,5.8481475E5,0E0,2.37467E5,9.7575675E5,1.274676E6,3.2777162E5,5.34707E5,1.634022E6,8.442305E5,1.2431335E6,4.299376E4,1.4043125E3,2.625334E6,8.523184E6,0E0,0E0,0E0,0E0,8.25304E5,1.8458669E6,2.543609E6,0E0,0E0,3.3142645E6,9.680012E6,1.0367496E7,3.291768E6,3.800625E6,0E0,0E0,0E0,0E0,0E0,0E0,0E0,0E0,0E0,0E0,0E0,0E0,0E0,0E0,0E0,0E0,0E0,0E0,0E0,0E0,0E0,0E0,0E0,0E0,0E0,0E0,0E0,0E0,0E0,0E0,0E0,0E0,0E0,0E0,0E0,0E0,0E0,0E0,0E0,0E0,0E0,0E0,0E0,0E0,0E0,0E0,0E0,0E0,0E0,0E0],"parents":[2147483647,0,0,1,1,2,2,3,3,4,4,5,5,6,6,7,7,8,8,9,9,10,10,11,11,12,12,13,13,14,14,15,15,16,16,17,17,18,18,19,19,20,20,21,21,22,22,23,23,24,24,25,25,26,26,27,27,28,28,29,29,30,30,31,31,32,32,33,33,34,34,35,35,37,37,38,38,39,39,40,40,41,41,42,42,43,43,44,44,45,45,46,46,47,47,48,48,53,53,54,54,55,55,58,58,59,59,60,60,61,61,62,62],"right_children":[2,4,6,8,10,12,14,16,18,20,22,24,26,28,30,32,34,36,38,40,42,44,46,48,50,52,54,56,58,60,62,64,66,68,70,72,-1,74,76,78,80,82,84,86,88,90,92,94,96,-1,-1,-1,-1,98,100,102,-1,-1,104,106,108,110,112,-1,-1,-1,-1,-1,-1,-1,-1,-1,-1,-1,-1,-1,-1,-1,-1,-1,-1,-1,-1,-1,-1,-1,-1,-1,-1,-1,-1,-1,-1,-1,-1,-1,-1,-1,-1,-1,-1,-1,-1,-1,-1,-1,-1,-1,-1,-1,-1,-1,-1],"split_conditions":[5.002668E-1,2.6071727E-1,8.011776E-1,1.2896615E-1,1.55E1,7.8572774E-1,1.05E1,6.249748E-2,8.5E0,8.5E0,4.638066E1,7.764602E-1,7.8914094E-1,2.8442804E1,5.4621708E1,2.6798908E-2,2.1305542E1,2.5317848E1,2.9544483E1,3.990212E1,2.5253977E1,3.8652428E1,3.2560913E1,9.5E0,7.5E0,3E1,7.9240674E-1,2.7999191E1,2.8671137E1,5.3711006E1,3.360059E1,2.7238144E1,3.1366669E1,3.75E1,7.5E0,2.4364147E1,6.006614E1,7.5E0,1.55E1,3.931436E1,2.6222874E1,1.15E1,4.918095E-1,3.8046684E1,3.890771E1,7.5E0,7.5E0,2.692973E1,2.8859522E1,7.286571E1,1.5716147E2,-1.4284372E2,-3.296845E2,1.15E1,2.25E1,2.7669092E1,1.6053369E2,-1.1413596E2,3.75E1,5.2878937E1,2.9523293E1,3.20936E1,3.39058E1,1.1049275E0,-7.8704447E-1,3.7863266E0,-4.7790046E0,1.7265148E1,2.5122524E1,3.7446597E0,8.804335E0,1.349771E1,-2.2919686E0,8.522788E1,5.232579E1,3.297806E1,1.2338873E1,2.4603994E1,1.052191E2,1.739428E1,-2.9232946E1,5.4755363E1,8.846822E1,3.66353E1,-9.203184E0,3.2198814E1,8.2639435E1,-6.096209E1,1.927114E1,1.4649394E1,-5.093981E0,-4.025243E1,-5.6584866E1,5.2066456E1,2.5785202E1,7.412146E1,4.5692795E1,1.0121285E2,2.0246939E2,3.436036E1,-7.546477E1,9.355986E1,9.346916E0,2.1947351E1,8.960563E1,1.0670547E2,3.161743E0,3.3576245E2,1.37426E2,6.577923E1,9.65682E1,-5.4303356E1,1.1304248E2],"split_indices":[4,4,4,4,0,4,0,4,0,0,3,4,4,2,3,4,2,2,3,3,2,3,2,0,1,1,4,2,2,3,2,3,2,1,0,2,0,1,0,3,2,0,4,3,3,1,1,2,2,0,0,0,0,0,1,2,0,0,1,3,2,2,2,0,0,0,0,0,0,0,0,0,0,0,0,0,0,0,0,0,0,0,0,0,0,0,0,0,0,0,0,0,0,0,0,0,0,0,0,0,0,0,0,0,0,0,0,0,0,0,0,0,0],"split_type":[0,0,0,0,0,0,0,0,0,0,0,0,0,0,0,0,0,0,0,0,0,0,0,0,0,0,0,0,0,0,0,0,0,0,0,0,0,0,0,0,0,0,0,0,0,0,0,0,0,0,0,0,0,0,0,0,0,0,0,0,0,0,0,0,0,0,0,0,0,0,0,0,0,0,0,0,0,0,0,0,0,0,0,0,0,0,0,0,0,0,0,0,0,0,0,0,0,0,0,0,0,0,0,0,0,0,0,0,0,0,0,0,0],"sum_hessian":[1.9696E4,1.1294E4,8.402E3,6.558E3,4.736E3,5.637E3,2.765E3,4.001E3,2.557E3,3.923E3,8.13E2,5.479E3,1.58E2,4.73E2,2.292E3,2.284E3,1.717E3,1.195E3,1.362E3,1.383E3,2.54E3,7.39E2,7.4E1,5.389E3,9E1,3.4E1,1.24E2,1.62E2,3.11E2,5.56E2,1.736E3,1.092E3,1.192E3,3.5E1,1.682E3,1.179E3,1.6E1,1.07E2,1.255E3,1.317E3,6.6E1,3.42E2,2.198E3,1.79E2,5.6E2,3.8E1,3.6E1,1.378E3,4.011E3,1.7E1,7.3E1,1.8E1,1.6E1,3.6E1,8.8E1,1.32E2,3E1,3.6E1,2.75E2,4.28E2,1.28E2,1.682E3,5.4E1,8.56E2,2.36E2,1.137E3,5.5E1,2E1,1.5E1,5.46E2,1.136E3,9.04E2,2.75E2,3.3E1,7.4E1,2.6E2,9.95E2,1.3E3,1.7E1,1.8E1,4.8E1,2.89E2,5.3E1,2.126E3,7.2E1,1.41E2,3.8E1,1.7E1,5.43E2,1.8E1,2E1,1.8E1,1.8E1,6.56E2,7.22E2,1.557E3,2.454E3,2E1,1.6E1,7.2E1,1.6E1,7.6E1,5.6E1,1.69E2,1.06E2,3.19E2,1.09E2,3.2E1,9.6E1,1.257E3,4.25E2,3.7E1,1.7E1],"tree_param":{"num_deleted":"0","num_feature":"5","num_nodes":"113","size_leaf_vector":"0"}},{"base_weights":[8.309665E1,3.9418846E1,1.3510146E2,1.3481956E1,6.149247E1,9.905852E1,1.5493347E2,5.48706E0,2.226514E1,5.1715054E1,8.255613E1,3.0671326E2,9.273197E1,1.4807819E2,2.1014537E2,2.5177846E0,9.746532E0,2.7021734E1,2.5981743E0,2.9584545E1,5.8342293E1,8.948922E1,-3.3500244E1,4.7265604E2,6.057203E1,2.4839203E2,8.916017E1,1.4979881E2,-3.0169882E2,1.37489E2,2.6516104E2,-2.3568041E0,3.8031678E0,1.3812754E1,-1.6156085E0,1.2419398E1,4.0639862E1,4.481787E1,-9.777731E0,9.301476E1,1.8073156E1,1.0211474E2,4.8203724E1,8.2106636E1,1.9845866E2,-5.4754597E1,7.109025E1,3.4953195E2,6.940275E2,1.1293371E2,-4.89412E-1,1.8204846E2,3.1133252E2,9.261899E1,-6.0760834E1,1.5404164E2,3.7176517E1,-1.2181417E0,1.7584682E2,3.2969833E2,1.7069029E2,-1.6580591E1,-1.6472199E0,2.5175953E1,3.4941268E0,1.6906406E1,1.127474E0,-5.023234E1,5.9936566E0,2.5887922E1,-1.734945E1,3.0081903E1,8.099796E1,9.622511E0,5.1584522E1,-3.0372114E0,-1.2881865E2,-8.538962E-1,1.05133736E2,-4.3304623E1,3.8116108E1,9.160102E1,1.714893E2,4.3929226E1,1.0236454E2,8.8316765E1,-1.1079946E2,7.5446216E2,9.468966E1,-7.7867226E1,2.6566065E1,2.5344492E2,4.322798E2,8.928533E1,6.0481165E2,5.006543E1,-1.6985107E2,1.5227081E2,6.312797E2,3.622857E2,2.7370906E0,1.129562E2,-5.5557873E1,-9.590677E1,1.9795609E2,3.779872E2,2.388728E2,2.81063E2,5.1931545E1],"categories":[],"categories_nodes":[],"categories_segments":[],"categories_sizes":[],"default_left":[true,true,true,true,true,true,true,true,true,true,true,true,true,true,true,true,true,true,true,true,true,true,true,true,true,true,true,true,false,true,true,true,true,true,true,true,true,true,true,true,true,true,true,true,true,true,false,true,false,false,false,false,false,true,true,true,true,true,true,true,true,false,false,false,false,false,false,false,false,false,false,false,false,false,false,false,false,false,false,false,false,false,false,false,false,false,false,false,false,false,false,false,false,false,false,false,false,false,false,false,false,false,false,false,false,false,false,false,false],"id":12,"left_children":[1,3,5,7,9,11,13,15,17,19,21,23,25,27,29,31,33,35,37,39,41,43,45,47,49,51,53,55,-1,57,59,61,63,65,67,69,71,73,75,77,79,81,83,85,87,89,-1,91,-1,-1,-1,-1,-1,93,95,97,99,101,103,105,107,-1,-1,-1,-1,-1,-1,-1,-1,-1,-1,-1,-1,-1,-1,-1,-1,-1,-1,-1,-1,-1,-1,-1,-1,-1,-1,-1,-1,-1,-1,-1,-1,-1,-1,-1,-1,-1,-1,-1,-1,-1,-1,-1,-1,-1,-1,-1,-1],"loss_changes":[4.4735536E7,6.129155E6,6.411456E6,3.456443E5,1.186936E6,4.167634E6,2.163392E6,3.2593492E4,2.1939288E5,5.78038E5,1.477078E6,3.810834E6,1.70197E6,4.03928E6,2.513782E6,9.539115E3,4.8949156E4,3.7513512E5,2.3974642E5,6.649641E5,1.344643E6,1.374643E6,2.3508486E5,1.283761E6,1.2474919E5,2.31445E5,1.578386E6,2.451304E6,0E0,1.4739935E6,2.150796E6,3.182255E3,7.8645293E3,3.0591156E4,1.0388361E5,3.6650956E5,4.1386225E5,2.4271719E4,2.844599E5,1.593525E5,9.5381894E5,4.0077E5,5.67565E5,1.951697E6,6.217417E6,1.6558811E5,0E0,1.925785E5,0E0,0E0,0E0,0E0,0E0,5.008658E6,8.427181E5,4.091376E6,2.1039642E6,3.8473197E5,1.322781E6,8.48284E5,1.938455E6,0E0,0E0,0E0,0E0,0E0,0E0,0E0,0E0,0E0,0E0,0E0,0E0,0E0,0E0,0E0,0E0,0E0,0E0,0E0,0E0,0E0,0E0,0E0,0E0,0E0,0E0,0E0,0E0,0E0,0E0,0E0,0E0,0E0,0E0,0E0,0E0,0E0,0E0,0E0,0E0,0E0,0E0,0E0,0E0,0E0,0E0,0E0,0E0],"parents":[2147483647,0,0,1,1,2,2,3,3,4,4,5,5,6,6,7,7,8,8,9,9,10,10,11,11,12,12,13,13,14,14,15,15,16,16,17,17,18,18,19,19,20,20,21,21,22,22,23,23,24,24,25,25,26,26,27,27,29,29,30,30,31,31,32,32,33,33,34,34,35,35,36,36,37,37,38,38,39,39,40,40,41,41,42,42,43,43,44,44,45,45,47,47,53,53,54,54,55,55,56,56,57,57,58,58,59,59,60,60],"right_children":[2,4,6,8,10,12,14,16,18,20,22,24,26,28,30,32,34,36,38,40,42,44,46,48,50,52,54,56,-1,58,60,62,64,66,68,70,72,74,76,78,80,82,84,86,88,90,-1,92,-1,-1,-1,-1,-1,94,96,98,100,102,104,106,108,-1,-1,-1,-1,-1,-1,-1,-1,-1,-1,-1,-1,-1,-1,-1,-1,-1,-1,-1,-1,-1,-1,-1,-1,-1,-1,-1,-1,-1,-1,-1,-1,-1,-1,-1,-1,-1,-1,-1,-1,-1,-1,-1,-1,-1,-1,-1,-1],"split_conditions":[4.6546644E-1,1.64446E-1,6.184305E-1,7.1504E-2,3.827757E-1,4.6990514E-1,9.66915E-1,3.8624793E-2,2.8870943E1,7.5E0,4.598508E-1,1.25E1,3.6881927E1,9.667623E-1,1.15E1,8.703215E-3,3.75E1,7.5E0,1.65E1,1.9262668E-1,3.2834095E1,4.5610482E-1,1.55E1,1.05E1,1.45E1,1.25E1,3.4340458E1,6.145484E1,-9.050965E1,9.8415047E-1,3.1350315E1,3.209313E-3,8.847617E-3,1.75E1,2.2340157E1,2.3282177E1,1.3991135E-1,2.9950197E1,3.4988586E1,2.4271812E1,2.25E1,3.2230854E-1,4.526213E1,4.550469E-1,4.570539E-1,4.635883E-1,2.1327076E1,9.5E0,2.0820827E2,3.3880116E1,-1.4682361E-1,5.461454E1,9.339976E1,3.4019684E1,2.25E1,6.1387146E1,7.5E0,2.25E1,7.5E0,6.0113396E1,1.008441E0,-4.9741774E0,-4.94166E-1,7.5527864E0,1.048238E0,5.0719223E0,3.382422E-1,-1.5069703E1,1.798097E0,7.766377E0,-5.204835E0,9.024571E0,2.429939E1,2.8867533E0,1.5475357E1,-9.1116345E-1,-3.8645596E1,-2.5616887E-1,3.1540121E1,-1.2991387E1,1.1434833E1,2.7480307E1,5.1446793E1,1.3178768E1,3.0709364E1,2.6495031E1,-3.323984E1,2.2633865E2,2.8406898E1,-2.3360168E1,7.9698195E0,7.603348E1,1.2968394E2,2.67856E1,1.814435E2,1.50196295E1,-5.0955326E1,4.5681244E1,1.8938393E2,1.08685715E2,8.2112724E-1,3.388686E1,-1.6667362E1,-2.8772032E1,5.938683E1,1.1339617E2,7.166184E1,8.43189E1,1.5579464E1],"split_indices":[4,4,4,4,4,4,4,4,2,0,4,0,3,4,0,4,1,0,0,4,3,4,0,0,0,0,2,3,0,4,2,4,4,0,2,2,4,2,3,3,1,4,3,4,4,4,0,0,0,0,0,0,0,2,1,3,1,1,1,3,4,0,0,0,0,0,0,0,0,0,0,0,0,0,0,0,0,0,0,0,0,0,0,0,0,0,0,0,0,0,0,0,0,0,0,0,0,0,0,0,0,0,0,0,0,0,0,0,0],"split_type":[0,0,0,0,0,0,0,0,0,0,0,0,0,0,0,0,0,0,0,0,0,0,0,0,0,0,0,0,0,0,0,0,0,0,0,0,0,0,0,0,0,0,0,0,0,0,0,0,0,0,0,0,0,0,0,0,0,0,0,0,0,0,0,0,0,0,0,0,0,0,0,0,0,0,0,0,0,0,0,0,0,0,0,0,0,0,0,0,0,0,0,0,0,0,0,0,0,0,0,0,0,0,0,0,0,0,0,0,0],"sum_hessian":[1.9696E4,1.0706E4,8.99E3,4.923E3,5.783E3,3.193E3,5.797E3,2.578E3,2.345E3,3.952E3,1.831E3,9.3E1,3.1E3,5.16E3,6.37E2,1.52E3,1.058E3,1.888E3,4.57E2,9.12E2,3.04E3,1.728E3,1.03E2,5.5E1,3.8E1,6.8E1,3.032E3,5.141E3,1.9E1,2.76E2,3.61E2,3.17E2,1.203E3,7.79E2,2.79E2,9.12E2,9.76E2,1.03E2,3.54E2,1.39E2,7.73E2,5.7E2,2.47E3,1.62E3,1.08E2,8.6E1,1.7E1,3.7E1,1.8E1,2E1,1.8E1,3.5E1,3.3E1,2.964E3,6.8E1,4.954E3,1.87E2,6E1,2.16E2,2.13E2,1.48E2,1.4E1,3.03E2,1.6E1,1.187E3,6.26E2,1.53E2,3.7E1,2.42E2,6.28E2,2.84E2,7.75E2,2.01E2,1.7E1,8.6E1,3.36E2,1.8E1,1.6E1,1.23E2,1.9E2,5.83E2,4.97E2,7.3E1,2.291E3,1.79E2,1.57E3,5E1,1.6E1,9.2E1,6.7E1,1.9E1,1.9E1,1.8E1,2.946E3,1.8E1,3.4E1,3.4E1,4.937E3,1.7E1,1.7E1,1.7E2,1.9E1,4.1E1,1.6E1,2E2,1.37E2,7.6E1,7.6E1,7.2E1],"tree_param":{"num_deleted":"0","num_feature":"5","num_nodes":"109","size_leaf_vector":"0"}},{"base_weights":[5.825749E1,2.9119236E1,9.741711E1,1.3972561E1,5.0231087E1,6.3952282E1,1.093782E2,7.1282153E0,2.4596193E1,5.5775455E1,3.545123E-1,1.098197E2,1.5560058E1,2.5131346E2,9.8789825E1,3.488574E0,1.2664602E1,2.3428646E1,1.1123277E2,4.9968056E1,1.7552031E2,-1.4006326E2,4.955973E1,8.070788E1,2.4831926E2,-5.309985E1,1.3506548E2,2.1412877E2,1.0424501E3,4.757377E1,1.1575221E2,3.8539858E0,-5.1564064E1,1.9332413E1,4.231063E0,3.0154516E1,3.9453924E0,-5.5668503E1,2.4592686E2,5.216278E1,-7.034388E1,2.4064586E2,1.2483544E1,-5.1454952E1,-2.0641734E2,2.0187868E2,-2.9527335E0,1.12116745E2,1.2224948E1,3.9897678E2,2.1778096E2,1.6628046E2,-6.514991E1,1.6218857E2,-1.391638E2,5.112434E2,1.7156097E2,6.0244354E1,-2.293197E2,9.1029125E-1,1.2178601E2,3.4513383E0,2.6387177E1,8.175636E0,3.5687412E1,1.0414212E1,-2.0226528E1,1.6068594E1,5.7404633E1,-6.602685E1,8.369048E0,5.546959E1,-2.5099037E1,-3.1899902E2,2.9507103E1,3.0775708E2,1.1369049E2,-3.918278E1,4.147028E1,-9.821018E0,-1.2763214E2,-2.5544295E2,-1.5578793E2,-5.9217696E0,4.6177728E2,1.1768337E2,-2.331371E1,1.9612845E2,7.2247635E1,-2.0858652E2,4.3480885E1,2.5371175E2,6.5280716E1,7.1451584E1,2.571398E2,-5.2114803E1,-3.0016602E2,-1.8346988E2,1.809725E2,-5.9514946E1,-2.072962E2,2.2778737E2,-7.856366E1,-2.955651E1,8.369064E1,-5.0191153E2,3.094071E0,2.256007E2,-1.9316397E1,1.7930391E2,1.0199735E2],"categories":[],"categories_nodes":[],"categories_segments":[],"categories_sizes":[],"default_left":[true,true,true,true,true,true,true,true,true,true,true,true,true,true,true,true,true,true,true,true,true,true,true,true,true,true,true,true,false,true,true,true,false,true,true,true,true,false,false,true,true,true,true,true,true,true,true,true,true,false,true,true,true,true,true,false,true,true,true,true,true,false,false,false,false,false,false,false,false,false,false,false,false,false,false,false,false,false,false,false,false,false,false,false,false,false,false,false,false,false,false,false,false,false,false,false,false,false,false,false,false,false,false,false,false,false,false,false,false,false,false],"id":13,"left_children":[1,3,5,7,9,11,13,15,17,19,21,23,25,27,29,31,33,35,37,39,41,43,45,47,49,51,53,55,-1,57,59,61,-1,63,65,67,69,-1,-1,71,73,75,77,79,81,83,85,87,89,-1,91,93,95,97,99,-1,101,103,105,107,109,-1,-1,-1,-1,-1,-1,-1,-1,-1,-1,-1,-1,-1,-1,-1,-1,-1,-1,-1,-1,-1,-1,-1,-1,-1,-1,-1,-1,-1,-1,-1,-1,-1,-1,-1,-1,-1,-1,-1,-1,-1,-1,-1,-1,-1,-1,-1,-1,-1,-1],"loss_changes":[2.2472288E7,3.61115E6,3.35652E6,4.7812312E5,1.304667E6,4.914764E6,9.276392E6,8.059797E4,2.580635E5,2.943923E6,3.2750342E6,4.564314E6,8.860616E6,1.2397174E7,4.999344E6,4.880111E4,8.916033E4,3.3325138E5,7.780313E5,1.073342E6,2.078096E6,7.1256E5,2.80812E6,2.0226935E6,8.19474E5,1.8243062E6,2.953121E6,5.110418E6,0E0,5.048373E6,2.998212E6,2.169304E4,0E0,1.6137588E5,1.0637055E5,7.2492475E5,2.0298723E5,0E0,0E0,1.017986E6,1.8218905E6,1.1578295E6,8.69903E4,1.7001055E5,1.3395475E5,4.863369E6,6.4628606E5,2.14624E6,2.0588652E6,0E0,8.930275E5,2.918062E5,1.9786702E6,2.364128E6,1.8302281E5,0E0,5.094859E6,2.8933205E6,3.9928608E6,9.9056694E5,4.66086E6,0E0,0E0,0E0,0E0,0E0,0E0,0E0,0E0,0E0,0E0,0E0,0E0,0E0,0E0,0E0,0E0,0E0,0E0,0E0,0E0,0E0,0E0,0E0,0E0,0E0,0E0,0E0,0E0,0E0,0E0,0E0,0E0,0E0,0E0,0E0,0E0,0E0,0E0,0E0,0E0,0E0,0E0,0E0,0E0,0E0,0E0,0E0,0E0,0E0,0E0],"parents":[2147483647,0,0,1,1,2,2,3,3,4,4,5,5,6,6,7,7,8,8,9,9,10,10,11,11,12,12,13,13,14,14,15,15,16,16,17,17,18,18,19,19,20,20,21,21,22,22,23,23,24,24,25,25,26,26,27,27,29,29,30,30,31,31,33,33,34,34,35,35,36,36,39,39,40,40,41,41,42,42,43,43,44,44,45,45,46,46,47,47,48,48,50,50,51,51,52,52,53,53,54,54,56,56,57,57,58,58,59,59,60,60],"right_children":[2,4,6,8,10,12,14,16,18,20,22,24,26,28,30,32,34,36,38,40,42,44,46,48,50,52,54,56,-1,58,60,62,-1,64,66,68,70,-1,-1,72,74,76,78,80,82,84,86,88,90,-1,92,94,96,98,100,-1,102,104,106,108,110,-1,-1,-1,-1,-1,-1,-1,-1,-1,-1,-1,-1,-1,-1,-1,-1,-1,-1,-1,-1,-1,-1,-1,-1,-1,-1,-1,-1,-1,-1,-1,-1,-1,-1,-1,-1,-1,-1,-1,-1,-1,-1,-1,-1,-1,-1,-1,-1,-1,-1],"split_conditions":[5.002668E-1,2.6124814E-1,4.6440575E1,1.2896615E-1,4.6596302E1,2.7077047E1,4.7389236E1,6.790675E-2,4.4087288E1,4.588765E1,4.7282684E1,6.4739645E-1,1.25E1,4.7341465E1,6.700596E-1,6.767933E-2,1.65E1,2.9139286E1,1.45E1,4.9209476E-1,1.55E1,1.15E1,1.25E1,5.88223E-1,6.628014E-1,5.141152E-1,4.6221657E1,4.656063E1,3.1273505E2,6.6640186E-1,9.5E0,6.579086E-2,-1.546922E1,7.5E0,3.75E1,9.5E0,3.313153E1,-1.6700552E1,7.377806E1,4.4627895E1,7.5E0,4.6404102E1,3.261033E1,2.25E1,1.45E1,2.9569775E1,4.7852154E1,2.25E1,4.2647343E1,1.1969304E2,4.511644E1,1.1E1,1.15E1,2.7174139E1,3.0092506E1,1.5337303E2,1.45E1,5.436152E-1,5.626977E1,4.8479797E1,5.2492947E1,1.0354016E0,7.9161534E0,2.452691E0,1.0706224E1,3.1242638E0,-6.067959E0,4.8205786E0,1.722139E1,-1.9808056E1,2.5107145E0,1.6640877E1,-7.5297112E0,-9.569971E1,8.852131E0,9.2327126E1,3.4107147E1,-1.1754835E1,1.2441085E1,-2.9463055E0,-3.8289642E1,-7.663289E1,-4.673638E1,-1.776531E0,1.3853319E2,3.530501E1,-6.994113E0,5.8838535E1,2.1674292E1,-6.257596E1,1.3044266E1,7.6113525E1,1.9584215E1,2.1435476E1,7.7141945E1,-1.5634441E1,-9.0049805E1,-5.5040966E1,5.429175E1,-1.7854485E1,-6.218886E1,6.833621E1,-2.35691E1,-8.866954E0,2.5107195E1,-1.5057347E2,9.282213E-1,6.7680214E1,-5.794919E0,5.3791176E1,3.0599207E1],"split_indices":[4,4,3,4,3,2,3,4,3,3,3,4,0,3,4,4,0,2,0,4,0,0,0,4,4,4,3,3,0,4,0,4,0,0,1,0,3,0,0,3,1,3,2,1,0,2,3,1,3,0,3,0,0,2,2,0,0,4,3,3,3,0,0,0,0,0,0,0,0,0,0,0,0,0,0,0,0,0,0,0,0,0,0,0,0,0,0,0,0,0,0,0,0,0,0,0,0,0,0,0,0,0,0,0,0,0,0,0,0,0,0],"split_type":[0,0,0,0,0,0,0,0,0,0,0,0,0,0,0,0,0,0,0,0,0,0,0,0,0,0,0,0,0,0,0,0,0,0,0,0,0,0,0,0,0,0,0,0,0,0,0,0,0,0,0,0,0,0,0,0,0,0,0,0,0,0,0,0,0,0,0,0,0,0,0,0,0,0,0,0,0,0,0,0,0,0,0,0,0,0,0,0,0,0,0,0,0,0,0,0,0,0,0,0,0,0,0,0,0,0,0,0,0,0,0],"sum_hessian":[1.9696E4,1.1294E4,8.402E3,6.577E3,4.717E3,2.214E3,6.188E3,4.001E3,2.576E3,4.245E3,4.72E2,1.136E3,1.078E3,4.28E2,5.76E3,2.415E3,1.586E3,2.543E3,3.3E1,4.05E3,1.95E2,1.22E2,3.5E2,9.4E2,1.96E2,6.85E2,3.93E2,4.1E2,1.8E1,1.434E3,4.326E3,2.4E3,1.5E1,8.85E2,7.01E2,1.89E3,6.53E2,1.5E1,1.8E1,3.978E3,7.2E1,1.39E2,5.6E1,5.3E1,6.9E1,8.9E1,2.61E2,6.44E2,2.96E2,3.1E1,1.65E2,3.5E1,6.5E2,3.58E2,3.5E1,5E1,3.6E2,1.372E3,6.2E1,2.16E2,4.11E3,2.359E3,4.1E1,5.27E2,3.58E2,5.6E2,1.41E2,1.247E3,6.43E2,3.8E1,6.15E2,3.815E3,1.63E2,2E1,5.2E1,9E1,4.9E1,2E1,3.6E1,3.5E1,1.8E1,3.3E1,3.6E1,5E1,3.9E1,3.7E1,2.24E2,2.06E2,4.38E2,3.6E1,2.6E2,1.33E2,3.2E1,1.8E1,1.7E1,6.17E2,3.3E1,1.8E1,3.4E2,1.7E1,1.8E1,2.94E2,6.6E1,2.84E2,1.088E3,2.8E1,3.4E1,1.7E1,1.99E2,1.05E3,3.06E3],"tree_param":{"num_deleted":"0","num_feature":"5","num_nodes":"111","size_leaf_vector":"0"}},{"base_weights":[4.082064E1,1.6770674E1,6.528019E1,6.4296603E0,2.693083E1,5.7153404E1,9.803014E1,2.4393053E0,1.0269544E1,3.0452158E1,-1.0080647E1,5.468381E1,1.7008714E2,-2.4530005E2,1.0119286E2,2.7015195E0,-3.7061653E1,1.2600916E1,-7.6828656E0,2.7875635E1,7.196237E2,9.202721E1,-4.2749382E1,6.444361E1,7.886899E0,3.6454526E2,1.09978966E2,1.1658749E2,2.3711088E1,-5.680998E-1,4.7654085E0,1.0113004E1,8.464733E1,-1.9147937E2,3.7904804E0,2.368216E1,5.513911E1,-1.7011963E2,1.5496973E2,3.7996765E1,-7.939346E1,6.091506E1,1.898346E2,-8.604512E2,1.9175238E1,8.706546E1,2.783172E2,4.3931094E2,1.12647804E2,3.8787029E0,3.059018E2,-9.298005E-1,1.891205E1,-2.1714697E1,5.1636143E0,5.098033E1,9.074797E0,1.1295727E2,5.3284504E1,-1.4849831E1,4.1234287E1,2.5834785E1,-2.158278E1,1.0371605E2,-9.655281E0,1.937793E2,-4.164756E1,-4.4151216E0,2.715381E2,-1.0019871E2,4.6582935E1,6.349537E1,-2.1674495E2,5.0314552E1,3.271726E2,-4.684211E1,5.484401E1,1.8675937E2,6.538897E1,-7.7535034E1,1.20435776E2,1.12228806E2,-3.8777023E1],"categories":[],"categories_nodes":[],"categories_segments":[],"categories_sizes":[],"default_left":[true,true,true,true,true,true,true,true,true,true,true,true,true,false,true,true,false,true,true,true,false,true,true,true,true,false,true,true,true,true,true,true,true,false,true,true,true,false,true,true,true,true,true,false,true,true,false,false,true,true,false,false,false,false,false,false,false,false,false,false,false,false,false,false,false,false,false,false,false,false,false,false,false,false,false,false,false,false,false,false,false,false,false],"id":14,"left_children":[1,3,5,7,9,11,13,15,17,19,21,23,25,-1,27,29,-1,31,33,35,-1,37,39,41,43,-1,45,47,49,51,53,55,57,-1,59,61,63,-1,65,67,69,71,73,-1,75,77,-1,-1,79,81,-1,-1,-1,-1,-1,-1,-1,-1,-1,-1,-1,-1,-1,-1,-1,-1,-1,-1,-1,-1,-1,-1,-1,-1,-1,-1,-1,-1,-1,-1,-1,-1,-1],"loss_changes":[1.1585692E7,1.0434505E6,2.593368E6,7.542294E4,6.5325775E5,2.173372E6,2.131386E6,2.5124344E4,1.0510784E5,8.1036135E6,1.4583144E6,3.498034E6,1.911891E6,0E0,2.290996E6,1.6204969E4,0E0,3.9724753E5,6.101577E5,5.199185E5,0E0,1.7753825E6,9.82402E5,2.792678E6,1.2984671E7,0E0,4.7334925E5,1.989882E6,1.7896982E6,6.5703496E3,1.5633684E4,9.067428E4,5.9684188E4,0E0,1.9115656E5,3.85732E5,1.9115416E6,0E0,6.643049E5,1.0313113E6,6.022486E5,4.43139E6,3.2984615E6,0E0,3.0802375E6,2.3630469E5,0E0,0E0,2.358424E6,1.3908778E6,0E0,0E0,0E0,0E0,0E0,0E0,0E0,0E0,0E0,0E0,0E0,0E0,0E0,0E0,0E0,0E0,0E0,0E0,0E0,0E0,0E0,0E0,0E0,0E0,0E0,0E0,0E0,0E0,0E0,0E0,0E0,0E0,0E0],"parents":[2147483647,0,0,1,1,2,2,3,3,4,4,5,5,6,6,7,7,8,8,9,9,10,10,11,11,12,12,14,14,15,15,17,17,18,18,19,19,21,21,22,22,23,23,24,24,26,26,27,27,28,28,29,29,30,30,31,31,32,32,34,34,35,35,36,36,38,38,39,39,40,40,41,41,42,42,44,44,45,45,48,48,49,49],"right_children":[2,4,6,8,10,12,14,16,18,20,22,24,26,-1,28,30,-1,32,34,36,-1,38,40,42,44,-1,46,48,50,52,54,56,58,-1,60,62,64,-1,66,68,70,72,74,-1,76,78,-1,-1,80,82,-1,-1,-1,-1,-1,-1,-1,-1,-1,-1,-1,-1,-1,-1,-1,-1,-1,-1,-1,-1,-1,-1,-1,-1,-1,-1,-1,-1,-1,-1,-1,-1,-1],"split_conditions":[4.33851E-1,1.64446E-1,5.622635E1,6.790675E-2,4.192335E-1,9.5375323E-1,6.149854E-1,6.767933E-2,1.5327333E-1,4.1792622E-1,7.5E0,5.25204E1,9.6204454E-1,-7.359002E1,6.1442398E1,2.3226272E-2,-1.1118496E1,1.5031806E-1,1.5394887E-1,3.827757E-1,2.1588713E2,9.5E0,3.8697998E1,5.201145E1,5.2539547E1,1.0936358E2,1.0251976E0,6.497714E-1,1.0744287E0,3.75E1,2.0920795E1,2.151236E1,1.5162441E-1,-5.7443813E1,3.1526772E1,3.7192914E-1,4.0035393E1,-5.1035892E1,3.1340488E1,1.45E1,3.75E1,5.190864E1,3.0176826E1,-2.5813538E2,5.362873E1,2.7914661E1,8.349516E1,1.3179329E2,6.971527E-1,3.0929241E1,9.177054E1,-2.7894017E-1,5.6736155E0,-6.5144095E0,1.5490843E0,1.52941E1,2.722439E0,3.388718E1,1.5985352E1,-4.4549494E0,1.2370287E1,7.750436E0,-6.4748344E0,3.1114817E1,-2.8965845E0,5.8133793E1,-1.2494268E1,-1.3245366E0,8.1461426E1,-3.0059614E1,1.3974881E1,1.904861E1,-6.502349E1,1.5094366E1,9.815179E1,-1.4052633E1,1.6453203E1,5.6027813E1,1.9616692E1,-2.3260511E1,3.6130733E1,3.3668644E1,-1.1633107E1],"split_indices":[4,4,3,4,4,4,4,4,4,4,1,3,4,0,3,4,0,4,4,4,0,0,3,3,3,0,4,4,4,1,2,2,4,0,3,4,3,0,2,0,1,3,2,0,3,2,0,0,4,2,0,0,0,0,0,0,0,0,0,0,0,0,0,0,0,0,0,0,0,0,0,0,0,0,0,0,0,0,0,0,0,0,0],"split_type":[0,0,0,0,0,0,0,0,0,0,0,0,0,0,0,0,0,0,0,0,0,0,0,0,0,0,0,0,0,0,0,0,0,0,0,0,0,0,0,0,0,0,0,0,0,0,0,0,0,0,0,0,0,0,0,0,0,0,0,0,0,0,0,0,0,0,0,0,0,0,0,0,0,0,0,0,0,0,0,0,0,0,0],"sum_hessian":[1.9696E4,9.932E3,9.764E3,4.923E3,5.009E3,7.825E3,1.939E3,2.415E3,2.508E3,4.574E3,4.35E2,7.659E3,1.66E2,1.7E1,1.922E3,2.4E3,1.5E1,2.22E3,2.88E2,4.558E3,1.6E1,1.05E2,3.3E2,6.337E3,1.322E3,3.8E1,1.28E2,1.603E3,3.19E2,9.29E2,1.471E3,2.147E3,7.3E1,1.6E1,2.72E2,3.952E3,6.06E2,2E1,8.5E1,1.03E2,2.27E2,6.165E3,1.72E2,1.6E1,1.306E3,1.14E2,1.4E1,1.8E1,1.585E3,2.99E2,2E1,9.13E2,1.6E1,2.1E1,1.45E3,5.2E1,2.095E3,3.7E1,3.6E1,1.82E2,9E1,3.773E3,1.79E2,3.46E2,2.6E2,7.1E1,1.4E1,8.8E1,1.5E1,1.95E2,3.2E1,6.109E3,5.6E1,8.6E1,8.6E1,4.58E2,8.48E2,1.9E1,9.5E1,6.2E1,1.523E3,8.4E1,2.15E2],"tree_param":{"num_deleted":"0","num_feature":"5","num_nodes":"83","size_leaf_vector":"0"}},{"base_weights":[2.8603642E1,1.4885775E1,5.119133E1,1.5471756E1,-3.8437595E2,5.3816307E1,-2.1525549E1,1.0348791E1,4.8481163E1,2.6432224E1,6.1888042E1,-1.897117E2,6.4150215E1,1.1024537E1,-3.6640863E2,5.0784683E2,4.3654564E1,7.917635E1,-4.4106552E1,1.391837E2,5.722341E1,1.2856244E2,-4.0231845E2,-7.952201E1,1.2826813E2,1.3899352E1,-2.4807634E1,7.9060455E1,5.811919E0,5.5851765E1,1.4941095E2,1.5119477E1,-8.260421E1,1.0103848E2,7.281282E2,-8.580396E1,6.2423374E1,-2.614685E2,-6.406042E2,-9.513602E0,-1.9806062E2,9.940299E1,3.2369724E2,1.2043977E1,1.6335774E2,2.4457645E1,-8.78524E1,6.0541836E1,3.8374216E2,4.422256E1,-1.4404953E2,7.8920296E1,-7.821658E1,8.443688E1,5.406345E2,-2.8387503E2,3.699506E1,-1.3674553E2,2.7416224E1,1.4006764E2,-7.323653E1,-1.6849285E1,-4.861386E2,1.1363178E2,5.2613834E1,-1.7205292E2,-3.1992755E2,-6.389044E1,3.446355E1,1.5280618E2,-4.3166437E0],"categories":[],"categories_nodes":[],"categories_segments":[],"categories_sizes":[],"default_left":[true,true,true,true,false,true,true,true,true,true,true,true,true,true,false,false,true,true,true,true,true,false,true,true,true,true,true,true,true,true,true,true,true,true,false,true,true,true,false,true,false,true,false,false,false,false,false,false,false,false,false,false,false,false,false,false,false,false,false,false,false,false,false,false,false,false,false,false,false,false,false],"id":15,"left_children":[1,3,5,7,-1,9,11,13,15,17,19,21,23,25,-1,-1,27,29,31,33,35,-1,37,39,41,43,45,47,49,51,53,55,57,59,-1,61,63,65,-1,67,-1,69,-1,-1,-1,-1,-1,-1,-1,-1,-1,-1,-1,-1,-1,-1,-1,-1,-1,-1,-1,-1,-1,-1,-1,-1,-1,-1,-1,-1,-1],"loss_changes":[6.10245E6,2.8733595E6,1.421686E6,2.069187E6,0E0,1.586074E6,3.758634E6,2.7017E6,3.622861E6,6.0939615E6,1.992038E6,6.0064395E6,1.6038698E6,1.0899936E6,0E0,0E0,2.1808205E6,1.526642E6,1.5995735E6,7.003036E6,3.897332E6,0E0,1.611316E6,4.462455E5,6.44754E5,2.713646E6,2.4434005E6,4.721928E6,4.542314E6,2.1865682E6,5.8770675E6,1.8222702E6,2.5353258E6,2.030395E6,0E0,5.0711195E6,2.530792E6,1.2790575E5,0E0,8.5898734E4,0E0,5.8778925E5,0E0,0E0,0E0,0E0,0E0,0E0,0E0,0E0,0E0,0E0,0E0,0E0,0E0,0E0,0E0,0E0,0E0,0E0,0E0,0E0,0E0,0E0,0E0,0E0,0E0,0E0,0E0,0E0,0E0],"parents":[2147483647,0,0,1,1,2,2,3,3,5,5,6,6,7,7,8,8,9,9,10,10,11,11,12,12,13,13,16,16,17,17,18,18,19,19,20,20,22,22,23,23,24,24,25,25,26,26,27,27,28,28,29,29,30,30,31,31,32,32,33,33,35,35,36,36,37,37,39,39,41,41],"right_children":[2,4,6,8,-1,10,12,14,16,18,20,22,24,26,-1,-1,28,30,32,34,36,-1,38,40,42,44,46,48,50,52,54,56,58,60,-1,62,64,66,-1,68,-1,70,-1,-1,-1,-1,-1,-1,-1,-1,-1,-1,-1,-1,-1,-1,-1,-1,-1,-1,-1,-1,-1,-1,-1,-1,-1,-1,-1,-1,-1],"split_conditions":[5.437715E-1,5.454058E1,3.3759987E1,4.3615116E1,-1.1531279E2,4.6407623E1,3.4113808E1,4.356726E1,4.3642643E1,4.4275764E1,4.7389236E1,5.2506565E1,6.1017287E-1,4.168573E1,-1.0992259E2,1.5235405E2,4.6849762E1,4.3523796E1,2.7320812E1,4.7341465E1,4.7800205E1,3.8568733E1,3.75E1,3.484366E1,3.4869625E1,4.123731E1,4.312469E-1,5.3285277E-1,5.227391E-1,2.7973446E1,2.7839901E1,4.4407024E1,1.25E1,7.240126E-1,2.1843846E2,6.5148294E-1,4.979093E1,1.45E1,-1.9218126E2,1.55E1,-5.941819E1,3.4433716E1,9.710918E1,3.6131933E0,4.9007324E1,7.337294E0,-2.6355722E1,1.8162552E1,1.1512265E2,1.3266768E1,-4.321486E1,2.367609E1,-2.3464975E1,2.5331066E1,1.6219037E2,-8.516251E1,1.1098518E1,-4.102366E1,8.224868E0,4.2020294E1,-2.1970959E1,-5.0547857E0,-1.4584158E2,3.4089535E1,1.5784151E1,-5.161588E1,-9.597827E1,-1.9167133E1,1.0339066E1,4.5841858E1,-1.2949932E0],"split_indices":[4,3,2,3,0,3,2,3,3,3,3,3,4,3,0,0,3,3,2,3,3,0,1,2,2,3,4,4,4,2,2,3,0,4,0,4,3,0,0,0,0,2,0,0,0,0,0,0,0,0,0,0,0,0,0,0,0,0,0,0,0,0,0,0,0,0,0,0,0,0,0],"split_type":[0,0,0,0,0,0,0,0,0,0,0,0,0,0,0,0,0,0,0,0,0,0,0,0,0,0,0,0,0,0,0,0,0,0,0,0,0,0,0,0,0,0,0,0,0,0,0,0,0,0,0,0,0,0,0,0,0,0,0,0,0,0,0,0,0,0,0,0,0,0,0],"sum_hessian":[1.9696E4,1.2255E4,7.441E3,1.2238E4,1.7E1,7.182E3,2.59E2,1.0595E4,1.643E3,1.636E3,5.546E3,8.7E1,1.72E2,1.0577E4,1.8E1,1.6E1,1.627E3,9.36E2,7E2,3.14E2,5.232E3,3.5E1,5.2E1,5.3E1,1.19E2,9.792E3,7.85E2,8.4E2,7.87E2,7.04E2,2.32E2,2.76E2,4.24E2,2.96E2,1.8E1,1.83E2,5.049E3,3.4E1,1.8E1,3.4E1,1.9E1,1.05E2,1.4E1,9.673E3,1.19E2,4.41E2,3.44E2,7.93E2,4.7E1,6.27E2,1.6E2,6.01E2,1.03E2,2E2,3.2E1,1.8E1,2.58E2,2.84E2,1.4E2,2.42E2,5.4E1,1.57E2,2.6E1,8.1E2,4.239E3,1.5E1,1.9E1,1.5E1,1.9E1,6.9E1,3.6E1],"tree_param":{"num_deleted":"0","num_feature":"5","num_nodes":"71","size_leaf_vector":"0"}},{"base_weights":[2.0025284E1,8.831209E0,3.544326E1,1.0638493E1,-2.8972172E1,4.1070383E2,3.4576515E1,6.963523E0,6.816303E1,-1.0993286E2,1.1591426E1,3.3992596E1,3.0028516E2,7.463279E0,-2.6227164E2,3.6445483E2,6.0161274E1,-6.587115E1,-1.7445497E2,1.5955202E2,-1.7330988E1,3.6848633E1,-1.6183159E1,3.005194E0,1.9118185E1,8.4437416E1,-1.4123448E1,-3.5417976E1,-1.2842282E2,-2.373463E2,-1.529874E2,7.0024864E1,3.349208E2,-1.9457426E2,3.706692E0,3.1050734E1,1.1703427E2,-1.4511736E2,2.6586632E1,4.9344234E0,-2.3665949E1,1.1963258E2,1.569459E1,3.302537E1,1.577535E2,9.702174E1,-2.7330103E1,-1.2625818E1,-5.7859417E1,-1.3712158E1,1.5026065E2,1.9357654E2,-2.837669E1,3.4637077E1,-9.1676E1,2.2876686E2,3.340226E1,-3.0170038E1,-2.5348552E2,1.9824437E2,-1.1586856E1],"categories":[],"categories_nodes":[],"categories_segments":[],"categories_sizes":[],"default_left":[true,true,true,true,true,false,true,true,true,true,true,true,false,true,false,false,true,true,true,true,true,true,true,true,true,true,true,true,false,false,false,true,false,false,true,true,true,true,true,false,false,